   0.23820,  -0.46857,   0.49623,   0.31174,  -0.36259,  -0.15984,   0.75360,  -0.70767,   0.36518,   0.53504
  -0.02013,   0.88176,  -0.87643,   0.42347,   0.30452,   0.29604,   0.54776,   0.93750,   0.93750,  -0.78621
   0.93750,   0.93750,  -0.09572,   0.36993,  -0.93750,  -0.30893,   0.93750,  -0.01423,   0.86786,   0.93750
  -0.87359,  -0.14419,  -0.16508,   0.27997,  -0.76612,  -0.30115,   0.27561,  -0.26083,  -0.16438,  -0.87773
   0.91261,   0.75881,  -0.66456,  -0.93750,   0.93530,  -0.93750,   0.93750,   0.82555,   0.93750,  -0.56477
  -0.59567,  -0.09669,   0.44806,   0.22602,   0.93750,   0.87570,  -0.93750,  -0.87361,  -0.55326,   0.59477
   0.19650,   0.48694,  -0.80252,   0.27460,   0.07948,  -0.89435,  -0.31892,   0.92141,   0.32386,  -0.93750
   0.30077,   0.17928,   0.17978,   0.07114,  -0.71710,   0.56529,  -0.13470,   0.42460,  -0.15134,  -0.33276
  -0.87759,  -0.87398,   0.93750,  -0.67772,   0.93750,  -0.89173,  -0.63829,  -0.93750,  -0.81390,   0.65654
  -0.34927,   0.93750,  -0.84396,   0.55705,   0.87858,  -0.76201,  -0.50086,  -0.82511,  -0.87775,  -0.79452
  -0.53980,  -0.41688,   0.87064,   0.87304,  -0.69727,   0.93750,  -0.74369,  -0.61934,  -0.15043,  -0.63712
   0.29920,   0.60955,  -0.93750,   0.77975,   0.65860,  -0.29259,  -0.93750,   0.08567,  -0.77574,   0.63741
  -0.10060,   0.56153,   0.04500,   0.67421,   0.93750,  -0.87034,  -0.87910,   0.81415,  -0.78202,   0.06924
   0.64078,   0.83444,  -0.48591,  -0.38963,   0.00745,  -0.50199,  -0.78630,  -0.12844,   0.77934,  -0.86202
   0.93750,   0.93750,   0.93750,   0.13484,   0.93750,   0.39454,  -0.74876,  -0.90441,   0.93750,   0.93750
   0.08573,   0.16774,  -0.76463,  -0.93750,   0.93750,   0.91901,   0.93750,   0.93750,  -0.87190,  -0.01021
  -0.93750,  -0.19615,  -0.93750,   0.93750,  -0.93750,   0.87820,   0.69185,  -0.93750,   0.43548,  -0.30859
  -0.38974,   0.93750,  -0.54941,  -0.66094,  -0.93750,   0.35502,  -0.86386,  -0.85884,   0.23177,  -0.57137
   0.16561,   0.86991,   0.13822,   0.93750,  -0.12328,  -0.93750,  -0.69832,  -0.20701,  -0.31837,   0.93750
  -0.13268,   0.83238,   0.00716,  -0.53247,  -0.43075,  -0.00328,   0.06255,   0.51062,   0.10670,   0.32640
  -0.20006,  -0.93750,   0.79320,  -0.87498,   0.93750,  -0.10866,   0.12673,  -0.72558,   0.61622,   0.93750
  -0.27606,  -0.80528,  -0.43354,   0.51724,  -0.87328,   0.12895,  -0.15264,  -0.93750,   0.16944,  -0.74067
   0.61057,  -0.93750,   0.93750,  -0.63122,   0.93750,   0.89254,  -0.93750,  -0.93750,   0.93750,  -0.29068
  -0.41755,   0.93750,  -0.93750,  -0.09547,   0.23108,  -0.25359,   0.93750,   0.93750,   0.46036,  -0.29578
  -0.23267,   0.51681,   0.84715,  -0.43900,   0.58397,   0.64385,  -0.33731,  -0.87184,   0.21059,  -0.69755
  -0.93750,   0.66156,   0.46078,   0.64835,   0.40716,  -0.18284,  -0.87975,  -0.66561,  -0.09454,  -0.24395
  -0.82586,  -0.78991,  -0.39867,  -0.67124,   0.75963,  -0.10862,  -0.11877,   0.93750,   0.18852,  -0.93750
   0.56434,   0.74772,  -0.93750,   0.93750,  -0.86641,  -0.80732,   0.55199,  -0.87370,   0.87215,  -0.73608
  -0.93750,  -0.13524,  -0.93750,   0.13014,  -0.93750,  -0.06686,  -0.77226,   0.93750,   0.09126,   0.11944
  -0.71977,   0.53819,  -0.14776,  -0.48879,   0.38698,  -0.25734,  -0.45528,  -0.41959,   0.90407,   0.70840
   0.93750,  -0.69825,   0.93750,  -0.80891,  -0.93750,  -0.42440,  -0.87304,   0.66894,  -0.24863,  -0.56083
   0.62481,   0.58434,   0.05492,   0.83609,  -0.03490,   0.13286,   0.93750,  -0.93750,   0.93750,   0.54674
   0.93750,  -0.93750,  -0.06848,  -0.37978,   0.93750,   0.79268,   0.93750,  -0.29027,  -0.20908,  -0.26535
   0.60084,   0.41748,  -0.73906,   0.17139,   0.93750,   0.61437,  -0.93750,  -0.61864,  -0.68867,  -0.81825
   0.52488,  -0.03075,  -0.10658,   0.15147,   0.93750,   0.29131,   0.74654,   0.81935,   0.93444,   0.06077
  -0.61118,   0.28066,  -0.80581,  -0.01511,   0.13949,   0.93750,   0.93750,  -0.75886,  -0.32478,   0.88748
   0.51883,   0.93750,   0.88084,  -0.93750,  -0.87413,  -0.13447,  -0.12098,  -0.11721,  -0.17673,   0.93750
  -0.00578,   0.93750,  -0.81164,  -0.93750,  -0.93750,  -0.93750,   0.77197,   0.70024,   0.93750,   0.77814
  -0.06497,   0.61980,   0.93750,   0.31899,   0.38328,  -0.23595,  -0.93750,  -0.00568,  -0.24197,   0.62887
   0.93750,   0.39826,   0.82368,  -0.47557,   0.15762,  -0.83359,   0.00490,  -0.29256,   0.80409,  -0.18052
   0.89408,  -0.91759,  -0.53086,  -0.23355,   0.15878,  -0.70403,   0.23327,   0.47635,   0.76355,  -0.63703
   0.00570,  -0.02371,   0.67375,  -0.93750,   0.29417,  -0.87458,   0.18494,  -0.93750,   0.02303,   0.93750
  -0.00812,  -0.24602,  -0.81810,   0.34953,   0.71828,  -0.16009,   0.93750,   0.28764,  -0.87538,   0.93750
   0.86993,   0.77124,   0.73769,   0.22495,   0.93750,  -0.93750,   0.93750,   0.93750,   0.33262,   0.93750
  -0.31907,  -0.00102,  -0.81361,  -0.71913,   0.60013,   0.93750,  -0.85862,   0.93750,   0.69278,  -0.15381
  -0.48383,   0.29071,   0.67155,  -0.47213,   0.93750,  -0.08181,   0.21568,  -0.21537,   0.38406,   0.43928
   0.60624,   0.93750,  -0.93750,  -0.93750,   0.93750,   0.93750,   0.03773,  -0.93750,   0.10000,   0.93316
  -0.38033,  -0.23471,   0.54888,   0.19200,   0.36378,   0.65454,   0.92802,  -0.86353,   0.52800,  -0.38642
   0.15970,   0.73440,  -0.65456,  -0.93750,   0.93750,  -0.52468,   0.75079,   0.88512,  -0.51991,   0.09138
  -0.01908,   0.87516,   0.14484,  -0.42959,   0.32908,  -0.04592,  -0.58756,   0.05824,  -0.93750,  -0.56897
  -0.74925,  -0.93750,  -0.23610,  -0.10003,   0.55321,  -0.48738,   0.50876,  -0.44900,   0.25203,   0.46497
   0.32822,   0.70286,  -0.68439,  -0.27671,  -0.45635,  -0.78013,  -0.21807,   0.93750,   0.48985,   0.87462
   0.69641,   0.93750,  -0.74344,   0.00226,  -0.74865,   0.70989,   0.63524,   0.24462,  -0.03090,   0.87065
  -0.44124,   0.88887,  -0.93750,   0.25121,  -0.05597,  -0.45065,   0.05674,  -0.71121,  -0.04647,  -0.42417
  -0.87135,   0.34484,  -0.52255,  -0.62653,   0.23893,   0.28883,  -0.00360,   0.43803,  -0.16202,  -0.42379
  -0.23599,   0.93750,  -0.00579,  -0.69718,   0.86655,   0.87749,  -0.87352,   0.93750,   0.21912,  -0.02037
  -0.47338,   0.80422,  -0.25819,  -0.72931,  -0.57526,   0.49901,   0.57431,  -0.86704,   0.81470,  -0.41160
  -0.38327,  -0.93750,  -0.92093,  -0.55691,   0.16848,  -0.93750,   0.93750,  -0.86631,   0.93750,  -0.93750
  -0.93750,  -0.05943,   0.09494,  -0.63534,  -0.93750,  -0.43527,  -0.93750,  -0.93750,   0.33034,  -0.93750
  -0.63492,  -0.77722,  -0.93750,  -0.82043,  -0.84723,   0.93750,  -0.82037,  -0.81349,  -0.90707,  -0.08878
  -0.04736,   0.50221,   0.54956,   0.62157,   0.49812,   0.54721,   0.74327,   0.13672,   0.04216,   0.08590
  -0.62257,   0.22452,  -0.88434,   0.93750,   0.93750,  -0.81098,   0.93750,  -0.62677,   0.39015,  -0.21592
  -0.44903,  -0.01257,  -0.04836,  -0.50575,   0.10650,  -0.51483,   0.51069,   0.48172,  -0.74575,  -0.26616
   0.93750,  -0.27130,   0.87046,  -0.84031,   0.86874,   0.20166,   0.30607,  -0.80664,   0.05102,  -0.80367
  -0.93750,  -0.03021,   0.93750,  -0.87298,  -0.87749,  -0.93750,  -0.19487,   0.93750,  -0.24152,  -0.02780
  -0.88046,  -0.03735,  -0.81314,  -0.87216,   0.25868,   0.81156,  -0.21166,   0.49437,   0.87573,  -0.10277
  -0.58838,   0.01114,   0.24393,  -0.45406,  -0.14315,  -0.21274,   0.00899,   0.81229,   0.38652,   0.18047
   0.65799,   0.32354,   0.93750,  -0.93750,  -0.20368,   0.73729,   0.54756,  -0.93750,   0.72143,   0.15725
  -0.17426,   0.93750,  -0.87767,  -0.41905,   0.14976,  -0.87286,   0.05473,   0.84020,  -0.93750,   0.28794
  -0.74621,  -0.12904,   0.92675,   0.26753,   0.54896,  -0.93378,  -0.61327,  -0.93750,  -0.49836,   0.23936
   0.83712,  -0.74040,   0.26296,  -0.43359,   0.69676,   0.00879,   0.81729,  -0.78974,  -0.05707,  -0.43046
   0.93750,   0.65782,   0.92940,  -0.93750,   0.33030,  -0.07910,  -0.93750,  -0.12836,  -0.34201,   0.01192
   0.22626,  -0.93750,  -0.56307,  -0.24944,  -0.87126,  -0.78076,   0.33777,  -0.47250,  -0.87532,   0.93750
  -0.93750,  -0.86478,  -0.86826,   0.93750,  -0.87864,   0.62783,  -0.75766,   0.80179,   0.55334,  -0.93750
  -0.86885,   0.83064,   0.19106,   0.25746,  -0.29672,  -0.13274,   0.36228,  -0.93750,  -0.23600,   0.26366
  -0.23960,   0.93750,   0.03110,  -0.93750,  -0.87824,  -0.64672,   0.20554,   0.78869,   0.10893,  -0.69114
  -0.81123,   0.72794,  -0.47326,  -0.81293,  -0.82305,  -0.81573,   0.69795,   0.76321,   0.51226,   0.26554
  -0.90350,   0.93750,   0.72378,  -0.93750,   0.93750,   0.93750,  -0.24350,   0.93086,   0.14929,  -0.56668
  -0.87282,  -0.11152,   0.52619,   0.93750,  -0.18555,  -0.69062,   0.93750,   0.93750,  -0.25960,   0.56783
   0.69200,  -0.34485,  -0.81561,  -0.88313,  -0.63512,   0.88123,  -0.69857,   0.14133,   0.74456,   0.81626
   0.47331,  -0.07268,  -0.55418,  -0.57762,  -0.48989,  -0.59931,  -0.05688,  -0.50957,   0.68343,   0.42272
   0.93750,  -0.93750,  -0.07478,  -0.93750,  -0.93750,  -0.93750,   0.93750,  -0.93750,  -0.75088,  -0.93750
   0.42110,   0.74443,  -0.74250,   0.12391,   0.93750,  -0.52729,  -0.70584,  -0.55399,   0.86396,  -0.74449
   0.33658,  -0.77416,   0.57714,  -0.65906,   0.87336,  -0.18720,   0.50164,  -0.71918,   0.79355,   0.16625
   0.12432,   0.80717,  -0.69801,  -0.33819,   0.50849,  -0.81030,   0.73690,  -0.90955,   0.27608,  -0.79873
   0.66927,  -0.93750,  -0.75039,   0.93750,   0.88181,   0.93750,  -0.87547,   0.83431,  -0.80000,  -0.86372
   0.22304,   0.74347,  -0.33036,  -0.61420,   0.10004,  -0.74905,   0.44120,  -0.18655,  -0.50237,  -0.27276
  -0.84970,   0.89884,  -0.08173,  -0.93750,   0.93750,  -0.33553,  -0.00983,  -0.93750,   0.12632,  -0.03292
   0.42054,   0.65794,  -0.93750,   0.93750,  -0.33543,  -0.93750,  -0.93750,   0.93750,   0.93750,  -0.93750
   0.93750,  -0.15143,  -0.79203,   0.89938,  -0.53599,  -0.80046,   0.48937,  -0.69907,   0.20293,  -0.87231
  -0.68695,   0.93750,   0.74703,  -0.93750,   0.76320,  -0.87796,  -0.07003,   0.93750,  -0.33070,  -0.64989
   0.93750,   0.29541,   0.32130,   0.52400,  -0.93750,  -0.93750,   0.82832,   0.75369,   0.82222,  -0.18085
  -0.45762,   0.93750,  -0.93750,  -0.79143,  -0.92752,  -0.62902,  -0.74459,   0.78221,  -0.93750,  -0.12007
   0.34855,  -0.93750,  -0.15111,  -0.86885,   0.63178,  -0.60333,  -0.38644,  -0.74633,   0.71319,   0.93750
  -0.42705,   0.38017,  -0.39733,   0.48688,  -0.00372,  -0.63043,  -0.59646,  -0.56650,   0.85246,   0.56079
   0.93750,   0.20485,  -0.44814,  -0.12015,   0.87330,   0.01116,  -0.42880,  -0.50235,  -0.87173,  -0.05884
  -0.87830,   0.40065,   0.93750,   0.28543,  -0.93750,   0.79572,  -0.40522,  -0.92157,  -0.93750,   0.36814
  -0.31699,   0.01611,   0.02973,   0.24381,   0.48309,  -0.04678,  -0.45112,  -0.66861,   0.44638,   0.48323
  -0.34811,   0.93750,   0.85309,  -0.80991,   0.57097,   0.19725,  -0.77381,  -0.63219,  -0.03476,  -0.67447
  -0.80870,   0.22986,  -0.62766,   0.93750,  -0.61824,   0.86790,   0.01862,  -0.75095,   0.93750,   0.12118
  -0.51026,   0.17303,   0.25594,  -0.09894,   0.45956,  -0.93750,  -0.87471,  -0.02377,  -0.75865,  -0.66917
  -0.93750,  -0.57765,   0.93750,   0.93750,  -0.71741,   0.60509,  -0.93750,   0.93750,  -0.02900,  -0.67413
  -0.74728,  -0.87429,   0.92330,  -0.80662,  -0.58168,   0.93750,  -0.93750,  -0.51305,   0.20420,   0.93750
  -0.62744,   0.75450,   0.75720,  -0.83016,  -0.71100,  -0.15038,   0.06536,   0.00276,  -0.88269,  -0.32503
   0.93670,   0.26721,  -0.66623,  -0.48665,   0.57973,  -0.58839,   0.46120,  -0.12513,  -0.74251,   0.86661
   0.54115,   0.48056,  -0.82631,  -0.63164,   0.27106,   0.00386,   0.93750,  -0.41790,  -0.86689,   0.32607
   0.01158,  -0.33684,   0.12840,   0.27524,   0.93750,  -0.93750,   0.56378,  -0.93750,  -0.93750,   0.37165
   0.55782,   0.00242,   0.70452,  -0.93750,  -0.28292,   0.01058,  -0.63184,   0.93750,  -0.00939,   0.40039
   0.93750,  -0.93750,   0.69751,  -0.47030,   0.87688,   0.13633,  -0.20452,   0.22057,  -0.93750,   0.21851
   0.87404,  -0.03863,  -0.37368,   0.89693,   0.87910,   0.05429,  -0.68057,  -0.12122,   0.93750,  -0.86330
  -0.00014,  -0.47565,  -0.93750,  -0.76243,   0.55123,   0.04435,   0.93750,   0.87866,  -0.73010,   0.82245
   0.88412,  -0.93750,  -0.02936,  -0.52334,  -0.93750,  -0.93750,  -0.79870,  -0.60715,  -0.29856,   0.93750
  -0.93750,   0.93750,  -0.93750,   0.67425,   0.93750,  -0.87006,   0.41167,   0.93750,   0.68663,  -0.55076
   0.93750,   0.05292,   0.37900,   0.93750,  -0.08213,  -0.44228,   0.93750,  -0.93750,   0.47621,  -0.13603
   0.15835,   0.51438,  -0.01830,  -0.48765,  -0.26371,  -0.61005,   0.53378,  -0.47566,   0.33847,   0.44471
  -0.59327,   0.74904,  -0.77683,   0.87999,   0.47526,   0.27668,   0.08259,   0.01545,   0.87591,  -0.93750
   0.84141,   0.87894,   0.37743,   0.22142,   0.52843,  -0.59437,  -0.22512,  -0.73287,  -0.13353,  -0.93110
   0.80779,  -0.25586,  -0.85221,   0.20565,  -0.03932,   0.74733,   0.88127,   0.43331,   0.69193,  -0.81952
   0.93750,  -0.93750,   0.43786,   0.77504,  -0.93750,   0.06575,   0.93750,  -0.93750,  -0.48205,   0.25741
   0.93750,  -0.19655,   0.46825,   0.42823,  -0.01125,  -0.93750,  -0.83708,   0.15110,  -0.93750,  -0.85408
   0.00383,   0.93750,  -0.93750,   0.36847,   0.37542,  -0.93750,   0.69420,   0.93750,   0.53295,  -0.75878
  -0.09429,  -0.09815,   0.81581,  -0.39864,   0.27200,  -0.88013,  -0.70002,  -0.43030,  -0.66510,   0.93750
   0.67818,  -0.05817,   0.73398,   0.88879,   0.55491,   0.03069,   0.63337,   0.69236,   0.82382,   0.01699
  -0.93750,  -0.32286,   0.26447,  -0.93750,  -0.93750,  -0.90261,  -0.93750,  -0.06744,  -0.75496,   0.93750
  -0.80951,  -0.58151,   0.81421,   0.02694,   0.08158,   0.20472,   0.24769,   0.93750,  -0.80541,   0.93750
  -0.81047,  -0.80000,  -0.93750,   0.93750,   0.03212,  -0.37211,   0.93750,   0.10959,   0.93750,  -0.38948
  -0.10400,   0.86866,   0.76144,   0.67455,  -0.93750,   0.11166,   0.13068,  -0.56944,   0.33510,  -0.34597
   0.85734,  -0.25480,  -0.26320,   0.01875,   0.46307,  -0.34352,  -0.77608,   0.05019,   0.86525,  -0.61214
   0.70841,  -0.87325,  -0.13444,   0.01602,   0.59910,   0.81692,   0.57400,   0.45953,   0.18432,  -0.93750
   0.93750,   0.45679,   0.22316,   0.79478,   0.80776,  -0.70699,   0.63091,  -0.85267,  -0.76271,   0.69592
   0.93750,  -0.93750,  -0.32558,   0.93750,   0.91410,  -0.39307,  -0.54930,  -0.57486,   0.24532,  -0.66564
   0.15980,  -0.02951,  -0.87730,  -0.93750,  -0.51381,   0.53065,   0.93750,   0.48796,   0.93750,   0.44598
  -0.35489,   0.16253,   0.81767,  -0.54914,  -0.80485,   0.76793,  -0.80719,  -0.87546,   0.67027,  -0.60101
   0.93750,   0.17627,  -0.93750,  -0.81811,   0.60203,  -0.87691,  -0.70949,   0.34391,   0.67328,   0.48100
  -0.65574,   0.02413,  -0.16223,  -0.80008,   0.53358,  -0.39608,   0.48106,  -0.86910,  -0.44248,  -0.72754
   0.75215,   0.71035,  -0.63992,  -0.74213,   0.66996,  -0.36531,   0.52264,   0.68548,   0.87142,  -0.77175
   0.15894,   0.00793,  -0.43677,   0.58697,  -0.93750,   0.22130,  -0.66167,  -0.13418,  -0.11614,  -0.93750
  -0.06813,   0.63344,  -0.93750,   0.84147,  -0.57392,   0.69421,  -0.87406,  -0.16330,   0.31909,  -0.93750
  -0.48494,   0.33800,  -0.93750,  -0.09447,  -0.71101,  -0.75608,   0.84855,  -0.61692,   0.87591,  -0.69807
   0.00624,  -0.56374,  -0.46873,   0.93750,  -0.04829,  -0.61746,   0.05005,   0.93750,  -0.24347,  -0.44004
   0.08080,   0.03024,   0.76317,   0.93750,   0.67985,   0.91874,  -0.62892,   0.93750,   0.86864,   0.14462
   0.93750,   0.93750,  -0.40846,   0.83507,   0.36767,   0.39079,  -0.09521,  -0.74397,  -0.76313,  -0.87455
   0.17478,  -0.39498,   0.61772,   0.50238,  -0.70572,   0.25094,   0.78533,  -0.44916,  -0.17515,   0.68734
  -0.01453,   0.80963,  -0.35413,  -0.73308,  -0.07720,  -0.55404,   0.31438,   0.25541,  -0.63259,   0.52326
   0.39168,  -0.65085,   0.05717,   0.47322,  -0.31876,  -0.28140,   0.23235,  -0.74389,   0.79020,   0.35985
   0.41653,   0.68269,   0.93750,  -0.53904,   0.93750,   0.33016,  -0.11883,  -0.90859,  -0.80923,   0.18709
  -0.58616,   0.21837,   0.93750,  -0.00637,   0.93750,  -0.74905,  -0.37793,   0.77622,   0.15028,   0.93750
  -0.04504,  -0.26948,  -0.64218,  -0.74595,   0.93750,  -0.87856,  -0.46080,  -0.82217,   0.78442,   0.51318
   0.67736,  -0.41792,  -0.58370,   0.93750,  -0.93750,  -0.05299,   0.93750,  -0.33989,  -0.87014,  -0.93750
   0.86456,  -0.93750,   0.54520,  -0.93750,  -0.70463,   0.66933,   0.80668,  -0.88055,   0.20356,   0.93750
  -0.47846,  -0.40554,  -0.67926,   0.48229,  -0.19537,  -0.27967,   0.76300,   0.93750,  -0.93750,  -0.62448
  -0.03015,   0.72689,  -0.52889,   0.61925,  -0.14729,  -0.60272,   0.49412,   0.52512,   0.54725,  -0.73897
  -0.36764,  -0.50784,  -0.41848,  -0.48973,   0.23898,   0.65358,  -0.56686,   0.43708,  -0.11541,   0.80765
  -0.93750,   0.93750,  -0.93750,   0.93750,   0.93750,   0.93750,  -0.70922,   0.22346,  -0.37344,   0.93750
   0.43700,  -0.42154,  -0.93750,   0.36310,   0.93750,  -0.93750,   0.93750,  -0.28182,   0.60889,  -0.74533
  -0.09043,   0.74843,   0.41544,   0.93750,   0.25841,   0.53974,   0.75534,  -0.93750,  -0.48321,   0.93750
  -0.33071,   0.92793,   0.76466,   0.56331,   0.09621,  -0.22311,  -0.71480,   0.86178,   0.48093,  -0.63148
   0.40937,   0.52617,   0.05253,  -0.89207,  -0.43885,   0.48720,  -0.35649,  -0.14728,   0.30474,  -0.08530
   0.51695,   0.93750,   0.87057,  -0.73965,   0.30580,   0.61252,  -0.67426,   0.56365,  -0.80720,  -0.55909
   0.28918,   0.74119,  -0.66187,  -0.93750,   0.93750,  -0.93750,  -0.86137,   0.86323,   0.93549,  -0.38709
   0.68046,   0.86034,  -0.81497,  -0.40920,  -0.31657,  -0.89056,   0.24788,   0.13989,   0.10949,   0.69612
   0.00229,  -0.56888,   0.28422,  -0.44748,   0.13990,  -0.93750,   0.87003,  -0.08871,  -0.74496,   0.14878
   0.57204,  -0.93750,   0.93750,  -0.33469,   0.93750,   0.71671,  -0.63386,  -0.27194,  -0.93750,  -0.93750
   0.56749,  -0.30628,  -0.62543,   0.39083,   0.56402,   0.26442,   0.49699,  -0.20681,   0.93750,   0.75103
  -0.05162,  -0.04640,  -0.93750,   0.87356,  -0.64975,  -0.56982,   0.93750,   0.30402,   0.53414,   0.38080
   0.81009,   0.87630,   0.72648,   0.36763,   0.13704,   0.69644,  -0.70054,   0.90662,  -0.87757,  -0.14904
   0.71577,   0.42019,  -0.93750,  -0.93750,  -0.55539,   0.75259,   0.93750,  -0.62288,  -0.26236,   0.93750
   0.65671,   0.93750,  -0.62587,   0.49034,  -0.40365,  -0.93750,   0.36050,  -0.05156,  -0.29866,   0.37450
  -0.51198,  -0.33168,   0.87069,   0.93750,   0.67961,  -0.76829,  -0.48025,  -0.23609,  -0.92447,  -0.15784
  -0.93750,   0.79307,   0.44414,  -0.71681,   0.15430,   0.50854,  -0.93555,   0.93750,   0.64354,  -0.93750
   0.93750,  -0.20045,  -0.89736,  -0.48578,   0.93750,  -0.93750,  -0.27403,  -0.93750,  -0.75850,  -0.67879
   0.74556,  -0.32944,  -0.23074,   0.93750,   0.32618,  -0.93750,  -0.23435,   0.93750,   0.73282,  -0.64583
  -0.21212,  -0.51014,   0.30600,   0.18180,   0.68610,   0.55037,  -0.67587,   0.48910,   0.06998,  -0.47045
   0.80941,  -0.47910,  -0.93750,   0.74689,  -0.88333,   0.84152,   0.04607,   0.02800,  -0.82989,   0.49895
  -0.87353,  -0.04538,  -0.56064,   0.93750,  -0.93750,  -0.85441,   0.93750,   0.24004,   0.93750,   0.46666
   0.12077,   0.93750,   0.19756,   0.46249,  -0.69577,  -0.93750,   0.46115,   0.10820,   0.29769,  -0.86791
  -0.30410,  -0.34641,  -0.27664,   0.27507,   0.08524,  -0.87489,   0.83618,   0.26988,   0.93750,   0.75541
  -0.66510,   0.14679,   0.64078,   0.03305,   0.93750,  -0.77000,  -0.04004,   0.70132,   0.93750,   0.14454
   0.25856,   0.81226,  -0.45530,   0.41173,  -0.53252,   0.26383,   0.09732,   0.30134,   0.67507,  -0.61274
  -0.93645,   0.11464,   0.27496,  -0.81677,   0.80927,  -0.09758,  -0.93750,   0.83024,  -0.47815,   0.80163
  -0.81949,  -0.16269,   0.93750,  -0.04607,  -0.35706,   0.11745,   0.15922,   0.40430,  -0.36809,   0.24518
   0.93750,  -0.73853,   0.87604,   0.88165,   0.88445,   0.71984,   0.56606,  -0.81344,  -0.88287,  -0.15839
   0.00900,  -0.75100,  -0.93750,   0.60522,  -0.13920,  -0.68990,   0.46244,  -0.52389,  -0.58348,  -0.45970
  -0.74379,  -0.93750,   0.00801,  -0.93750,   0.93750,  -0.38001,   0.22035,   0.60886,   0.70660,   0.24226
   0.25616,   0.26640,  -0.55779,  -0.87510,  -0.16973,   0.93750,   0.55202,  -0.75216,   0.87762,   0.75242
  -0.68044,  -0.33324,   0.53792,   0.93750,  -0.86916,  -0.80978,   0.07974,   0.87100,   0.37202,   0.93750
  -0.87858,  -0.35417,  -0.19653,  -0.87040,  -0.34096,   0.93750,  -0.80452,  -0.34217,   0.35101,  -0.84173
  -0.93750,  -0.93750,  -0.22938,   0.52319,  -0.65841,  -0.48906,   0.68700,  -0.52442,   0.87254,   0.93750
   0.82067,   0.93750,   0.92454,   0.14277,  -0.37488,   0.19484,   0.79268,   0.31559,   0.93750,  -0.23234
  -0.39533,  -0.87928,   0.47252,  -0.32785,  -0.93750,   0.42523,  -0.02573,   0.14064,  -0.20703,  -0.88095
  -0.82316,  -0.51432,  -0.93750,  -0.22764,   0.46206,  -0.82386,   0.10228,   0.69961,   0.93750,   0.70500
  -0.50770,   0.59794,   0.04161,   0.93750,  -0.50682,  -0.02600,  -0.26937,   0.21635,  -0.44389,   0.56457
   0.26549,  -0.05781,  -0.08353,  -0.42249,  -0.69236,   0.81532,  -0.43682,   0.40206,  -0.32434,   0.56989
   0.80259,   0.93750,   0.54577,   0.00505,   0.65979,  -0.51831,  -0.62740,  -0.69138,   0.10179,  -0.91563
  -0.80577,   0.74719,  -0.35389,  -0.80045,  -0.67052,   0.93750,   0.93750,  -0.03941,   0.03131,   0.11545
   0.93750,   0.93750,   0.53078,   0.93750,  -0.58086,  -0.88054,   0.01576,  -0.30209,  -0.23563,  -0.88685
  -0.60555,  -0.93750,   0.93750,   0.93750,   0.81024,  -0.33139,  -0.42493,  -0.69025,  -0.86747,  -0.68368
   0.47489,   0.44937,   0.16706,  -0.67553,  -0.68528,  -0.01773,  -0.62235,   0.40348,   0.49974,   0.93750
  -0.82943,   0.30541,  -0.34317,   0.27663,   0.87047,  -0.11960,   0.37591,   0.09321,  -0.19164,  -0.81075
   0.84668,  -0.32234,   0.37670,   0.13965,   0.72484,   0.10728,  -0.69633,   0.18359,  -0.05078,  -0.05165
  -0.54376,  -0.17047,  -0.08140,  -0.17125,  -0.46998,   0.25666,   0.23106,   0.24123,   0.15907,   0.85729
   0.17237,  -0.50904,   0.75022,  -0.40692,   0.06572,  -0.37116,   0.50544,  -0.93750,   0.81332,  -0.23873
   0.29297,  -0.46345,   0.03864,  -0.92874,   0.93750,   0.87350,  -0.93750,  -0.33957,  -0.39102,  -0.43213
  -0.80210,   0.81123,   0.07117,   0.69350,   0.30988,   0.32258,  -0.73779,  -0.80502,   0.28699,  -0.51212
  -0.78626,   0.69813,   0.57966,  -0.60206,  -0.44705,  -0.66398,   0.02320,  -0.09639,  -0.04781,  -0.57783
   0.35835,   0.91428,   0.39503,   0.05823,  -0.80155,  -0.72440,   0.50437,  -0.42726,  -0.37602,  -0.20778
   0.29925,   0.93750,   0.56417,  -0.87038,   0.87386,  -0.93750,   0.33875,   0.93750,  -0.54262,  -0.93750
  -0.19721,  -0.93006,   0.75307,  -0.83263,  -0.87159,  -0.93750,  -0.75011,  -0.93750,   0.93750,  -0.75385
  -0.93750,  -0.93750,   0.39730,   0.18765,   0.89212,   0.57532,   0.58359,   0.34978,  -0.44766,   0.93750
  -0.35737,  -0.32134,  -0.10935,   0.59638,  -0.18208,  -0.53468,   0.66214,   0.53527,   0.86176,   0.09756
  -0.87488,  -0.42821,  -0.72443,   0.79173,  -0.47010,   0.75430,   0.93750,   0.54026,  -0.67234,   0.93750
   0.93750,   0.93429,  -0.17194,  -0.81784,  -0.93750,  -0.36567,  -0.63478,  -0.51630,  -0.31296,   0.45609
   0.93750,   0.78863,  -0.93750,  -0.93750,   0.41654,   0.13876,   0.93750,   0.93750,  -0.93750,   0.93750
   0.53811,  -0.22252,   0.93750,   0.93750,  -0.50758,  -0.93750,  -0.55783,   0.60459,  -0.82827,   0.93750
   0.88413,  -0.38817,   0.56995,   0.92731,   0.25379,   0.39690,  -0.55014,   0.49486,  -0.38475,  -0.28278
  -0.38342,  -0.80008,   0.80419,   0.06023,   0.86872,  -0.87436,   0.30830,  -0.93750,  -0.93750,   0.88462
  -0.53640,  -0.93750,  -0.93750,  -0.87945,   0.06114,  -0.14464,   0.42885,   0.46930,  -0.60201,  -0.10841
   0.45229,   0.93750,  -0.33678,   0.33420,  -0.69403,   0.08163,   0.87409,  -0.52281,  -0.84754,  -0.73422
   0.72058,   0.93750,  -0.11944,  -0.87702,   0.29847,  -0.92362,   0.13877,  -0.39054,  -0.23152,   0.86903
   0.41629,  -0.79727,  -0.22029,   0.12137,  -0.45717,   0.62852,  -0.65919,  -0.92165,   0.75731,   0.70514
   0.86209,   0.93750,   0.52828,  -0.81675,  -0.30124,  -0.79853,  -0.59836,   0.69477,   0.87456,  -0.83700
   0.93750,  -0.20560,   0.06089,   0.93750,   0.93750,  -0.93750,   0.93750,   0.93750,   0.18689,   0.73380
  -0.72305,  -0.82250,   0.63553,  -0.79904,  -0.19224,   0.86705,  -0.83329,   0.93750,  -0.07413,  -0.87637
  -0.68073,   0.70843,  -0.81109,  -0.88390,   0.27301,   0.81105,   0.59317,  -0.03291,  -0.79283,   0.73293
  -0.29196,   0.40262,  -0.93750,   0.04553,   0.75629,  -0.85621,  -0.26566,  -0.93750,  -0.51340,  -0.93750
   0.56894,   0.62415,   0.64089,  -0.84261,   0.81776,  -0.64387,   0.91955,   0.78193,   0.00571,  -0.46124
   0.48253,  -0.87464,   0.51277,   0.93750,   0.41195,  -0.86948,   0.93750,  -0.93750,  -0.93750,   0.71592
  -0.85911,   0.93750,  -0.88660,  -0.93750,  -0.60508,   0.91669,   0.00748,   0.93750,  -0.45378,  -0.75967
   0.01075,  -0.81000,  -0.91007,  -0.86959,  -0.81431,  -0.70514,   0.63710,  -0.01758,   0.12780,   0.93750
  -0.68300,   0.35242,   0.45335,  -0.38420,  -0.87464,   0.83766,   0.73730,  -0.70779,  -0.01608,   0.16721
   0.32831,  -0.39940,  -0.37886,  -0.14684,  -0.68125,   0.87838,  -0.51965,   0.74093,   0.04347,  -0.39092
  -0.34862,  -0.45827,  -0.93750,   0.93750,   0.86893,   0.11452,  -0.17807,  -0.53351,  -0.11577,  -0.18559
  -0.67428,  -0.20399,  -0.41812,   0.80527,  -0.53286,   0.58008,   0.89206,  -0.40725,  -0.47188,   0.80776
   0.71347,   0.77213,   0.73905,  -0.33381,  -0.13160,  -0.00735,   0.87250,  -0.17658,   0.08020,  -0.77789
  -0.93750,  -0.22095,   0.56739,   0.93750,   0.93750,  -0.00479,  -0.16351,   0.93750,  -0.78124,  -0.30585
   0.66309,   0.93750,   0.93750,   0.13489,   0.93750,   0.93750,   0.68968,  -0.87170,  -0.26356,  -0.93750
   0.27548,   0.67645,  -0.64207,  -0.69339,   0.93750,   0.28609,  -0.77188,   0.65955,  -0.73839,  -0.93750
   0.47344,  -0.07131,   0.44442,   0.25358,   0.72342,   0.20309,   0.07403,  -0.35900,   0.05444,   0.07455
  -0.30753,  -0.25776,   0.55698,  -0.86793,  -0.41675,   0.55562,   0.09157,   0.05935,   0.44326,   0.63010
   0.93750,   0.08197,  -0.19576,  -0.93750,   0.35223,   0.93750,   0.93516,  -0.55633,   0.93750,   0.58979
  -0.51980,  -0.73210,  -0.15681,   0.86626,  -0.01419,   0.31193,   0.93750,  -0.28802,  -0.37115,  -0.67458
   0.50617,   0.73146,  -0.12641,  -0.53259,  -0.31443,  -0.00173,   0.70619,  -0.18668,  -0.75048,   0.50349
  -0.43769,  -0.43711,   0.43872,  -0.35291,  -0.47252,  -0.08804,   0.27584,   0.05500,   0.41482,   0.72442
   0.87830,   0.93750,  -0.86519,  -0.93750,   0.74247,  -0.05135,   0.30327,   0.41770,   0.49194,  -0.76086
  -0.22976,   0.19068,  -0.76407,  -0.93750,  -0.22927,   0.89368,  -0.68314,  -0.57089,   0.93750,   0.93750
   0.93750,  -0.42743,   0.01324,   0.93750,   0.93750,  -0.87295,  -0.89836,   0.72652,  -0.14556,  -0.62442
   0.93750,  -0.06385,  -0.11642,  -0.43649,   0.89869,  -0.07272,   0.11811,  -0.93750,   0.20433,   0.07879
   0.72464,  -0.86116,  -0.33625,   0.93750,  -0.93750,  -0.31141,   0.62573,  -0.69792,   0.61402,  -0.74144
   0.30966,   0.82232,  -0.74158,   0.93750,   0.27625,  -0.84824,   0.03531,   0.78308,  -0.50152,  -0.81623
   0.46497,   0.93750,  -0.87123,   0.34527,   0.93750,  -0.21814,   0.42509,  -0.12308,   0.65330,  -0.93750
   0.82222,   0.01254,   0.06494,  -0.43837,   0.85595,  -0.81672,  -0.75574,   0.17572,  -0.50135,   0.93750
   0.56586,  -0.93750,   0.86808,  -0.48228,   0.26147,   0.78561,  -0.47223,  -0.93750,  -0.87849,   0.61482
   0.85923,  -0.93750,  -0.43953,  -0.38621,   0.34709,  -0.86225,   0.81395,  -0.93750,   0.93750,   0.93750
   0.67425,   0.03678,   0.01413,  -0.11242,   0.87514,  -0.42369,   0.09319,  -0.65237,  -0.86809,   0.26756
   0.21732,  -0.51477,  -0.46490,   0.87464,   0.87934,  -0.11251,  -0.30306,   0.09551,   0.32759,  -0.64271
   0.14464,  -0.93750,  -0.88669,   0.40798,   0.90832,   0.93750,   0.93750,  -0.62011,  -0.93750,  -0.66960
   0.10673,  -0.00153,  -0.53681,   0.29724,  -0.18865,  -0.02915,  -0.28356,   0.87365,  -0.48592,   0.45876
   0.67176,   0.65286,   0.93020,   0.60395,   0.26673,  -0.92431,  -0.79862,  -0.87136,  -0.56572,  -0.13919
   0.82177,  -0.93750,  -0.93750,   0.93750,   0.93750,   0.93750,  -0.48510,   0.93750,   0.67975,   0.68061
  -0.76815,   0.93750,  -0.32852,   0.14084,  -0.40024,  -0.29962,  -0.01471,  -0.10997,  -0.30992,  -0.19497
   0.53828,   0.49139,   0.79035,  -0.20148,  -0.87048,  -0.93750,  -0.93750,   0.93750,  -0.30721,   0.18041
  -0.62415,   0.22159,  -0.93750,  -0.81689,   0.88113,   0.01409,   0.79673,   0.93750,  -0.59360,  -0.34098
   0.68847,  -0.93750,   0.93750,  -0.72455,  -0.93750,   0.93750,   0.00445,  -0.93750,  -0.54874,  -0.66187
   0.35434,  -0.28334,   0.32602,   0.73287,   0.93750,  -0.21184,   0.34366,   0.93750,   0.40617,  -0.20816
  -0.34957,  -0.15113,  -0.67187,  -0.07396,   0.08339,  -0.73727,   0.66691,   0.64104,   0.17084,  -0.76202
  -0.93750,  -0.87810,  -0.93750,   0.69128,   0.93750,  -0.93750,  -0.86302,  -0.93750,  -0.55785,   0.93750
   0.21820,  -0.93750,   0.28584,  -0.27445,   0.93750,  -0.93750,   0.84779,   0.13468,   0.93750,  -0.01818
  -0.89155,  -0.57795,   0.36519,  -0.60415,  -0.19137,  -0.50612,  -0.59980,   0.87892,  -0.48552,   0.79419
  -0.34781,   0.37116,   0.76345,   0.46458,  -0.60096,  -0.93750,  -0.74236,   0.46923,  -0.93750,  -0.93750
   0.71389,  -0.47594,  -0.93750,   0.60087,  -0.93750,  -0.93750,   0.86631,  -0.93750,   0.62839,   0.87826
  -0.93750,  -0.85420,  -0.93750,   0.93750,   0.93750,   0.93750,   0.93750,   0.24663,   0.93750,  -0.86963
  -0.70531,   0.05272,   0.93750,   0.88839,  -0.36713,   0.74434,  -0.60834,   0.93750,  -0.76193,   0.06917
  -0.00891,  -0.93750,   0.42267,  -0.08519,   0.93750,   0.44598,   0.46576,   0.93750,  -0.74006,  -0.29801
   0.31128,  -0.14020,   0.93750,   0.48450,  -0.93750,   0.73034,   0.07002,  -0.93750,   0.33081,   0.18879
   0.74958,   0.65556,  -0.93750,   0.60770,   0.00122,  -0.31787,   0.93750,   0.58159,   0.93750,   0.59808
  -0.93750,   0.93750,   0.71279,  -0.93750,  -0.93750,   0.75815,  -0.93750,   0.93750,  -0.73915,   0.73054
  -0.81806,   0.93750,  -0.93750,   0.93750,   0.16888,  -0.93750,  -0.87365,   0.93750,  -0.46608,  -0.87682
  -0.65791,  -0.49433,  -0.71932,   0.76654,   0.15322,  -0.75329,   0.17640,  -0.59067,   0.11430,   0.87301
  -0.65565,   0.46671,  -0.93750,   0.00860,  -0.93091,  -0.06456,  -0.00956,   0.46912,   0.59905,   0.93750
   0.93225,  -0.87572,  -0.24030,  -0.44063,   0.49649,  -0.82111,  -0.27421,   0.05778,   0.39350,   0.17924
   0.53595,   0.11090,  -0.48935,   0.56853,  -0.44618,   0.31755,   0.81401,  -0.16367,  -0.49793,  -0.04594
  -0.93750,   0.93750,   0.22552,   0.93750,   0.93750,   0.93750,   0.93750,  -0.33786,   0.86710,   0.62985
   0.61313,  -0.39481,  -0.92269,  -0.93750,   0.45281,  -0.93750,   0.34267,  -0.23530,   0.74564,   0.93750
   0.93750,   0.16675,   0.73106,  -0.91339,   0.93750,  -0.35579,  -0.17869,  -0.79041,  -0.93750,  -0.87530
  -0.93750,  -0.34457,   0.44749,   0.24611,  -0.75062,  -0.93750,   0.49297,  -0.15329,  -0.47090,   0.91117
  -0.93750,  -0.93750,  -0.93750,  -0.93750,  -0.14782,   0.18068,   0.66932,   0.08357,   0.32658,  -0.93750
  -0.26800,   0.30705,  -0.87772,  -0.71182,   0.31782,   0.93750,   0.69206,  -0.47398,  -0.87404,  -0.93750
   0.83115,  -0.58705,   0.74233,  -0.55533,  -0.48497,   0.61666,  -0.47657,  -0.68327,   0.91335,  -0.77326
   0.26232,   0.93750,   0.88083,  -0.93750,  -0.59075,  -0.57068,  -0.11137,   0.03144,   0.93750,  -0.40652
  -0.42586,   0.12465,  -0.81296,   0.47875,   0.63715,  -0.93750,   0.38702,  -0.93750,   0.64006,   0.53930
   0.93750,  -0.62037,   0.74945,  -0.02187,  -0.18694,   0.11465,   0.35977,  -0.57002,  -0.71145,  -0.19243
  -0.41760,   0.73435,   0.59958,  -0.93750,   0.16819,  -0.83210,   0.59924,  -0.93750,  -0.93750,  -0.93750
  -0.13415,   0.25593,   0.93750,   0.88923,  -0.93750,   0.27578,   0.93750,  -0.93750,  -0.93750,  -0.93750
   0.05506,   0.93750,   0.93750,   0.93750,   0.87658,  -0.93750,   0.88457,   0.93750,   0.86256,  -0.93750
  -0.93750,  -0.41198,  -0.75770,   0.60521,   0.93750,   0.93750,   0.18002,  -0.09220,  -0.75627,   0.13614
  -0.10626,   0.87302,   0.59971,  -0.93750,   0.25256,  -0.90075,  -0.16829,   0.93750,  -0.91322,   0.93750
   0.59545,  -0.77480,   0.81983,  -0.93750,   0.93750,  -0.16810,   0.93750,   0.93750,   0.59351,  -0.93750
   0.73074,   0.93750,  -0.93750,   0.08966,   0.93750,   0.15559,   0.87608,   0.24273,   0.93750,  -0.93750
  -0.93750,   0.63003,   0.36051,  -0.81890,  -0.93750,  -0.00426,   0.93750,  -0.15807,  -0.73612,   0.75200
   0.77348,   0.93750,   0.58892,  -0.42946,  -0.34391,  -0.52550,  -0.65500,  -0.71363,   0.73999,   0.24504
  -0.10039,  -0.00727,   0.93750,  -0.78966,   0.02884,   0.36092,   0.93750,  -0.93750,  -0.93750,   0.93750
  -0.87284,  -0.50834,   0.03382,  -0.56028,  -0.87019,   0.55646,  -0.11871,   0.73512,  -0.82695,  -0.10082
   0.86188,  -0.02943,   0.23641,  -0.41878,  -0.22764,  -0.68121,   0.93327,   0.10018,  -0.45876,   0.16339
  -0.93750,   0.45946,   0.93750,  -0.58103,  -0.65375,  -0.38351,  -0.73022,  -0.93750,  -0.11069,  -0.93750
  -0.27140,  -0.19560,  -0.93750,  -0.93750,   0.93750,   0.93750,  -0.01693,  -0.61525,  -0.69195,   0.93750
   0.35348,  -0.15857,   0.86731,   0.23621,   0.18000,   0.74423,   0.40689,  -0.51422,  -0.50132,   0.44425
  -0.93750,  -0.65141,   0.87652,  -0.68578,  -0.86706,   0.82133,  -0.86876,   0.81789,   0.74685,   0.93750
   0.07112,  -0.38786,   0.36260,  -0.87775,   0.93750,  -0.93750,   0.93750,  -0.93750,   0.93750,   0.43016
  -0.64356,  -0.93750,  -0.38656,  -0.93750,  -0.88501,  -0.93750,  -0.93750,  -0.93750,   0.12297,  -0.93750
   0.18755,   0.63771,   0.09461,  -0.46678,  -0.93750,  -0.87490,  -0.80129,   0.93750,   0.85276,  -0.07577
  -0.93750,   0.52215,   0.93750,  -0.93750,  -0.77441,  -0.42157,   0.58755,   0.93750,  -0.63901,  -0.72835
   0.93750,  -0.93750,  -0.90616,   0.73825,  -0.61233,  -0.00461,   0.93750,  -0.50711,  -0.93750,   0.75763
  -0.18970,   0.15786,   0.87256,   0.87325,  -0.05347,  -0.31345,   0.80794,   0.77044,   0.46764,  -0.73674
  -0.67335,  -0.28475,  -0.32478,   0.73390,   0.19343,   0.74120,   0.15534,  -0.83060,   0.53080,   0.11230
   0.87812,  -0.14597,   0.82541,  -0.93750,  -0.77811,   0.40115,   0.93750,   0.93750,   0.86907,   0.11894
  -0.68572,   0.05906,  -0.76521,  -0.25867,   0.93750,  -0.81930,  -0.26327,  -0.66492,  -0.93750,   0.93750
  -0.49015,   0.86866,  -0.73428,   0.55867,   0.63539,  -0.16721,  -0.04089,  -0.55071,  -0.17619,   0.77446
   0.14130,   0.56382,  -0.42837,  -0.60300,   0.38563,   0.21789,  -0.55103,   0.81432,   0.68181,  -0.73444
  -0.26712,   0.15867,   0.23806,   0.18954,  -0.79900,  -0.65380,  -0.11394,   0.66644,  -0.11060,   0.28798
  -0.85610,  -0.27940,   0.66945,  -0.12449,  -0.17095,   0.87378,  -0.70957,   0.12289,   0.39647,  -0.05509
  -0.50076,  -0.32928,  -0.51925,  -0.24343,  -0.30004,   0.43402,   0.60178,   0.43532,  -0.66475,  -0.86354
   0.69019,  -0.33174,   0.68808,   0.18925,  -0.84931,   0.50300,   0.70373,   0.04812,  -0.93750,  -0.91280
  -0.83379,   0.79650,   0.93750,   0.73814,   0.93750,  -0.93750,  -0.93750,   0.70771,   0.75845,  -0.24549
  -0.16094,   0.04215,   0.09150,   0.72316,   0.82349,   0.54239,   0.34521,   0.04653,   0.75287,   0.72673
  -0.22089,   0.75505,  -0.77587,   0.60575,   0.91238,  -0.49245,  -0.87192,  -0.68384,  -0.09629,   0.38841
   0.79570,   0.28419,  -0.37839,  -0.38108,   0.75362,  -0.89808,  -0.30822,  -0.77009,   0.26127,   0.01184
  -0.23506,  -0.88201,   0.93750,   0.16424,   0.93750,   0.81289,   0.87376,   0.54535,  -0.93750,   0.48030
   0.50622,   0.93750,  -0.80659,   0.07524,  -0.69596,  -0.93750,  -0.93750,  -0.93750,  -0.72825,  -0.56931
  -0.93750,  -0.28741,   0.35931,  -0.81592,  -0.59398,  -0.93750,  -0.93750,  -0.93750,  -0.93750,  -0.22471
   0.93325,  -0.35400,   0.71050,  -0.93588,   0.16275,   0.38062,  -0.55184,  -0.66564,  -0.57449,  -0.35046
   0.80866,  -0.55462,  -0.34669,   0.79592,   0.47916,  -0.56432,   0.21324,  -0.01697,  -0.02062,  -0.93750
  -0.92330,   0.76355,   0.53406,   0.55684,   0.27759,  -0.05192,  -0.69690,   0.79713,   0.93750,   0.07525
  -0.93750,   0.93750,  -0.72501,  -0.33732,   0.86591,  -0.57133,   0.93750,   0.93750,  -0.93750,  -0.93750
  -0.93750,   0.61679,   0.34620,   0.93750,   0.24312,   0.70554,  -0.93750,  -0.25031,  -0.93750,   0.91175
  -0.67523,  -0.20626,  -0.03716,   0.87335,  -0.63593,   0.83886,   0.76025,  -0.56029,  -0.69151,  -0.20886
  -0.73465,   0.44248,  -0.76250,   0.88460,   0.93750,   0.17627,   0.10391,   0.00619,   0.35379,   0.93750
  -0.17239,   0.60272,  -0.64585,   0.37695,   0.41717,   0.52404,   0.25480,   0.28301,   0.54114,  -0.69509
   0.93750,  -0.51355,   0.00943,  -0.40551,  -0.42285,  -0.26119,   0.16655,  -0.33486,  -0.93750,   0.87231
  -0.93750,  -0.57438,   0.41962,  -0.92121,   0.25741,  -0.93750,  -0.80297,   0.93750,  -0.80215,  -0.93750
   0.93750,  -0.65536,  -0.74574,   0.64818,  -0.87558,  -0.07204,  -0.71206,  -0.04715,   0.30590,   0.32316
   0.33775,   0.93750,  -0.93750,  -0.90368,   0.68272,  -0.76313,  -0.25487,   0.68651,  -0.09886,  -0.36342
  -0.19641,   0.48481,   0.80736,   0.36680,  -0.47814,   0.80311,   0.21451,  -0.03922,  -0.58431,   0.20109
  -0.33513,  -0.58600,   0.47440,  -0.73180,   0.93750,  -0.51168,  -0.79888,  -0.20414,   0.45432,   0.93750
  -0.60430,  -0.80587,  -0.52258,  -0.09463,   0.20090,   0.93750,   0.94328,   0.10602,   0.57500,  -0.93750
  -0.54334,  -0.31090,  -0.93750,   0.93750,   0.93750,  -0.93750,  -0.93750,  -0.93750,  -0.93750,   0.86788
   0.73942,  -0.52925,   0.93750,  -0.48901,  -0.93750,   0.87547,   0.37303,   0.49386,   0.93750,  -0.02250
  -0.81330,  -0.60635,   0.34899,  -0.12166,  -0.93750,  -0.75496,   0.48801,   0.93750,   0.87799,   0.81799
  -0.93593,   0.93750,   0.58762,  -0.14164,   0.93750,   0.66949,  -0.16242,   0.02969,   0.16262,  -0.80622
  -0.50774,  -0.37170,   0.72806,  -0.07942,   0.22710,   0.15778,  -0.27928,   0.21791,   0.92187,  -0.79925
  -0.69717,   0.25412,  -0.44512,   0.87115,  -0.79018,  -0.23561,  -0.47234,   0.21976,  -0.46752,   0.93750
   0.19916,  -0.62307,   0.01729,   0.59453,   0.21718,  -0.72899,  -0.65095,   0.87160,  -0.29657,   0.16372
  -0.45010,   0.92565,  -0.93750,   0.91870,  -0.72260,   0.93750,   0.18073,  -0.06801,   0.93750,  -0.93750
   0.51682,   0.00607,   0.60938,  -0.34169,  -0.52184,  -0.47625,   0.78978,   0.05791,  -0.47048,  -0.08097
  -0.40059,   0.42873,   0.93750,   0.19683,  -0.93750,   0.27203,  -0.28068,   0.76265,   0.56944,   0.34383
   0.07620,   0.47717,  -0.93750,  -0.13755,   0.75075,   0.63025,  -0.84742,   0.93750,  -0.27354,  -0.93750
  -0.14145,   0.63893,  -0.44883,  -0.50218,  -0.53114,   0.74708,  -0.29616,  -0.85305,   0.00033,   0.87091
  -0.57391,   0.93750,  -0.46632,   0.86988,  -0.87613,   0.82003,   0.41180,  -0.48712,   0.37044,  -0.93750
   0.17506,  -0.18867,  -0.32142,  -0.93750,   0.66498,  -0.16306,  -0.61610,  -0.40459,  -0.34983,   0.87650
   0.93750,   0.49652,  -0.78851,   0.63441,   0.93750,  -0.34770,  -0.16603,   0.37419,  -0.93750,   0.93750
  -0.31510,  -0.69213,   0.15187,  -0.24905,   0.68057,   0.25735,   0.17061,  -0.60736,  -0.47483,   0.71948
   0.88160,  -0.29192,  -0.64265,   0.52933,   0.82207,   0.74343,  -0.73609,   0.93750,   0.18685,  -0.86092
   0.40264,   0.59808,   0.17245,   0.79794,  -0.42150,  -0.03219,  -0.41014,   0.57351,  -0.57408,   0.41917
   0.03051,  -0.46087,  -0.06594,   0.18014,   0.93750,  -0.81531,  -0.74121,   0.87715,   0.16289,  -0.26257
  -0.34301,  -0.46506,  -0.81928,   0.93750,  -0.68669,  -0.20628,   0.93750,   0.05715,  -0.18289,  -0.87593
   0.86801,  -0.87940,   0.63785,   0.75505,   0.18524,  -0.56045,  -0.67978,  -0.71335,   0.73833,  -0.06896
   0.50065,   0.67824,   0.26186,  -0.83712,  -0.75864,  -0.93750,   0.87168,  -0.93750,   0.67588,  -0.36258
   0.73781,   0.93750,   0.93750,   0.93750,  -0.88228,  -0.93750,  -0.59599,  -0.63531,   0.26732,   0.56871
   0.70840,   0.25634,   0.93750,  -0.92222,   0.80443,  -0.93750,  -0.80507,  -0.81927,  -0.80302,   0.64068
  -0.93750,   0.41119,  -0.93750,  -0.65188,   0.93750,  -0.93750,   0.93750,   0.06616,  -0.90245,  -0.75578
   0.36080,  -0.16537,  -0.54808,  -0.15622,  -0.04376,  -0.57209,   0.51708,   0.58959,   0.17433,  -0.05711
  -0.88139,   0.37677,  -0.72914,   0.81695,   0.21277,  -0.60744,   0.93750,   0.93750,   0.09089,  -0.93750
   0.93750,   0.93750,  -0.61412,  -0.93750,  -0.74362,  -0.39956,  -0.35888,   0.43960,  -0.93750,   0.85123
   0.49056,   0.20219,   0.93750,  -0.41312,   0.76156,   0.05278,  -0.93750,  -0.42285,  -0.79955,  -0.20650
  -0.86809,  -0.81544,   0.93750,  -0.57866,   0.93750,  -0.35654,   0.36937,  -0.93750,   0.78642,  -0.27338
  -0.79818,   0.74520,  -0.70906,  -0.71389,  -0.65884,   0.01415,   0.81016,   0.36682,   0.78014,   0.57215
  -0.43040,  -0.27902,  -0.03963,   0.51440,   0.85015,   0.58374,   0.10094,  -0.32898,   0.79336,  -0.69568
   0.16497,   0.63564,  -0.82212,   0.73703,  -0.31192,   0.56953,   0.34673,  -0.31239,  -0.93750,  -0.40533
   0.48136,  -0.24891,   0.75436,   0.16506,  -0.73748,   0.39501,   0.93750,   0.19144,  -0.88089,   0.49750
  -0.56691,  -0.84637,   0.82314,  -0.12637,   0.51317,   0.02660,   0.88328,   0.88472,  -0.92256,  -0.69398
  -0.70140,  -0.76264,   0.06990,   0.20805,   0.03569,  -0.62566,   0.93750,  -0.76475,   0.38634,   0.87608
   0.63315,   0.17281,   0.20385,  -0.54925,  -0.32409,   0.12891,   0.93750,  -0.52511,  -0.01474,   0.30940
   0.93750,  -0.02288,   0.93750,   0.70612,   0.81089,  -0.76845,   0.49536,  -0.75426,  -0.93750,  -0.81987
   0.93750,  -0.62385,  -0.79291,   0.32231,  -0.82173,   0.12953,  -0.80448,  -0.81702,  -0.49203,   0.20432
   0.93750,   0.82443,  -0.06520,  -0.41115,   0.43383,  -0.81551,   0.62602,   0.93750,  -0.06949,  -0.89660
  -0.71450,  -0.93750,   0.43627,  -0.33745,   0.08155,   0.93750,   0.93750,  -0.93750,  -0.85042,   0.90150
   0.93750,   0.93750,   0.93750,   0.93750,  -0.93750,  -0.93750,  -0.65142,  -0.45942,   0.93750,  -0.93750
   0.93750,   0.77336,  -0.87325,  -0.59329,   0.51577,   0.15338,   0.26841,  -0.86768,   0.12644,  -0.47054
  -0.26984,   0.93750,  -0.46668,   0.42206,   0.93750,  -0.25402,   0.29693,  -0.93750,  -0.25266,   0.86626
  -0.20164,   0.50969,  -0.16509,  -0.42043,  -0.65795,   0.93750,   0.26324,   0.62115,   0.93750,   0.93750
  -0.51245,   0.25667,   0.30682,   0.49619,  -0.93750,   0.73798,  -0.63484,  -0.93750,   0.66252,  -0.93750
  -0.42791,   0.06519,   0.21770,  -0.31496,   0.00673,  -0.44004,  -0.80721,   0.93750,  -0.80520,   0.67216
  -0.18440,   0.12860,  -0.50494,   0.65498,   0.17043,  -0.93750,   0.71083,  -0.75442,  -0.80876,  -0.37569
   0.87992,   0.11716,   0.11493,   0.69739,   0.53637,   0.04450,  -0.07296,  -0.93750,  -0.68529,   0.48123
   0.78752,  -0.52738,  -0.74494,  -0.58885,   0.24839,  -0.23889,  -0.54336,   0.50661,  -0.74974,  -0.43316
  -0.46825,  -0.87785,   0.50101,   0.13215,  -0.75442,  -0.66659,  -0.87506,   0.47978,  -0.81786,   0.48482
   0.78522,   0.57336,   0.38782,   0.93750,  -0.21111,  -0.78733,   0.60871,  -0.35573,  -0.46297,   0.93750
  -0.71689,  -0.28221,   0.74793,   0.47518,  -0.44562,  -0.87707,   0.14368,  -0.93750,  -0.93750,   0.93750
  -0.93750,  -0.93750,  -0.35812,  -0.93750,  -0.64139,   0.57723,  -0.15348,  -0.93750,   0.67917,  -0.93750
  -0.65150,   0.93750,  -0.93750,   0.80369,  -0.47414,   0.63889,  -0.35474,  -0.87313,   0.48091,   0.76068
  -0.93750,   0.93750,  -0.70773,   0.18215,   0.17316,  -0.92901,   0.58294,  -0.12309,  -0.31519,   0.93750
  -0.93750,   0.21084,   0.93750,   0.60554,  -0.93750,  -0.34592,  -0.82319,   0.15211,   0.88503,  -0.93750
   0.87171,  -0.60076,   0.34904,  -0.63686,  -0.48480,  -0.88160,  -0.53013,   0.49781,   0.87271,  -0.04728
   0.30958,  -0.06200,   0.81420,  -0.46618,   0.19192,  -0.76173,  -0.20955,   0.88797,   0.72989,   0.12681
   0.15106,  -0.93750,  -0.48996,  -0.31594,  -0.81755,  -0.32748,   0.65162,   0.93750,  -0.03288,  -0.93750
   0.14052,  -0.54590,  -0.58315,   0.64262,  -0.93750,  -0.06825,   0.93750,   0.68361,  -0.19640,   0.93750
  -0.17697,   0.93750,  -0.56896,   0.58618,  -0.41917,   0.60073,  -0.60379,   0.93750,   0.87997,  -0.02240
   0.53864,  -0.04967,   0.08448,  -0.54402,   0.79190,   0.43891,  -0.20064,  -0.28247,  -0.93750,   0.66892
  -0.17986,   0.93750,   0.24377,  -0.15237,  -0.59316,  -0.44562,  -0.56568,   0.25150,  -0.65849,  -0.33207
  -0.49339,  -0.48700,  -0.80591,   0.30212,  -0.46669,   0.18767,   0.91314,  -0.47543,   0.10775,   0.87751
  -0.60153,  -0.93750,   0.93750,  -0.75680,   0.80200,   0.45415,   0.69000,  -0.93409,   0.86747,  -0.87962
  -0.79497,   0.75374,  -0.93750,  -0.84281,   0.14990,   0.17460,  -0.53029,   0.38479,  -0.62287,  -0.87987
   0.75791,  -0.38146,  -0.73412,   0.93750,   0.25095,  -0.93750,  -0.28555,  -0.23851,  -0.93750,   0.88222
   0.87307,  -0.87941,  -0.46498,   0.56127,  -0.70064,  -0.88056,   0.68592,  -0.26160,  -0.54537,   0.10103
   0.44957,   0.91704,  -0.76477,  -0.82333,  -0.19221,  -0.93750,   0.64530,  -0.06458,   0.62851,   0.34921
  -0.45611,   0.39915,  -0.51345,  -0.90033,   0.02689,  -0.92745,   0.93750,   0.63845,   0.64435,   0.88121
   0.48886,  -0.00083,  -0.67330,   0.47181,   0.50515,  -0.87091,  -0.19727,  -0.76860,   0.56419,  -0.60408
   0.93750,  -0.68931,  -0.50658,  -0.78308,   0.16134,  -0.93750,   0.64274,  -0.93750,   0.48258,   0.19425
  -0.55606,  -0.14965,  -0.66856,  -0.42332,  -0.60389,   0.88109,   0.92624,  -0.93750,  -0.77500,   0.93750
   0.93750,   0.04158,   0.93750,  -0.83999,   0.33346,  -0.89745,  -0.39231,   0.59876,  -0.25469,   0.93076
  -0.19906,  -0.59161,   0.93750,   0.23575,   0.93750,  -0.81830,   0.93750,   0.38550,  -0.17886,   0.93750
  -0.76862,  -0.14285,   0.65869,  -0.87346,  -0.09112,  -0.81319,   0.30760,  -0.57621,  -0.93750,   0.84392
  -0.93750,  -0.71904,  -0.78650,  -0.93750,   0.19040,  -0.85136,  -0.26897,  -0.93750,  -0.29717,  -0.81918
   0.88275,   0.93750,  -0.79622,   0.93750,  -0.75594,   0.25278,   0.57423,   0.34926,  -0.44115,  -0.81779
   0.93750,   0.93750,  -0.03552,  -0.32712,  -0.25785,   0.93750,   0.93750,   0.20171,   0.93750,   0.60447
  -0.17846,  -0.33678,   0.08209,   0.93750,  -0.17983,   0.35102,  -0.57812,  -0.93750,   0.25398,   0.93750
  -0.91891,   0.64706,  -0.82443,   0.69005,   0.92462,   0.28375,   0.24839,   0.53910,   0.14963,  -0.01338
  -0.39369,  -0.39321,   0.91537,   0.93750,  -0.86901,  -0.59840,   0.05199,  -0.71084,   0.17227,   0.41709
  -0.80080,  -0.72844,  -0.03053,   0.19218,  -0.75077,  -0.92417,   0.45940,   0.64509,   0.87680,   0.73143
  -0.75509,   0.93750,   0.16518,   0.42601,   0.00973,  -0.21502,  -0.51090,   0.21121,   0.83645,   0.04173
  -0.06517,  -0.65073,   0.31137,   0.68258,  -0.35596,  -0.06516,   0.93750,  -0.69519,   0.34370,  -0.30496
   0.50831,   0.83183,  -0.55137,  -0.93750,   0.93750,  -0.00022,  -0.52128,   0.20785,  -0.93750,   0.72724
  -0.20007,  -0.81332,  -0.93750,  -0.93750,  -0.93750,  -0.78880,   0.93750,   0.79904,  -0.89029,   0.57725
  -0.13079,   0.31070,  -0.33608,  -0.20310,   0.80851,   0.10089,   0.14880,  -0.28224,   0.79139,  -0.22747
  -0.10008,   0.35783,   0.87217,   0.29683,   0.75540,  -0.62870,  -0.15367,   0.34766,  -0.81932,   0.93750
   0.93750,  -0.29876,  -0.93750,  -0.21510,  -0.72471,  -0.93750,   0.93750,  -0.27988,  -0.33266,  -0.36022
   0.52693,  -0.52296,  -0.72780,   0.34661,   0.44810,   0.27975,  -0.53376,  -0.77398,   0.60219,   0.45225
  -0.82017,   0.27469,  -0.43602,  -0.24132,  -0.37436,   0.66596,   0.93750,  -0.87220,  -0.79506,  -0.55178
  -0.36174,   0.01716,  -0.87381,   0.71368,   0.45337,  -0.76545,  -0.17873,   0.46847,  -0.27287,   0.49882
   0.21877,  -0.74038,   0.93750,   0.08031,  -0.74654,   0.93750,  -0.40091,  -0.87391,   0.29131,  -0.93750
   0.76394,   0.78736,   0.47371,   0.09958,  -0.19772,  -0.73577,  -0.56610,   0.59746,  -0.81981,  -0.79082
  -0.63952,  -0.71260,   0.93750,  -0.47103,   0.93750,  -0.87602,  -0.49424,   0.88577,  -0.93750,   0.93750
  -0.42234,   0.75232,   0.93750,   0.15999,  -0.39016,  -0.80119,  -0.27660,  -0.93750,  -0.93750,  -0.62186
  -0.70599,   0.93750,  -0.81818,  -0.06736,  -0.06387,   0.09085,  -0.29632,  -0.26636,  -0.92150,  -0.58365
   0.90270,  -0.93750,   0.93750,   0.93750,  -0.93750,   0.93750,   0.93750,  -0.93750,   0.48569,  -0.84674
  -0.57019,  -0.60737,   0.85730,   0.73614,   0.48627,   0.18279,  -0.01475,   0.30105,  -0.37188,   0.12560
  -0.17381,   0.55421,   0.59344,   0.87012,  -0.34817,  -0.68795,   0.48684,  -0.87584,  -0.73895,  -0.58542
  -0.23206,   0.28127,  -0.80146,   0.93750,  -0.03099,  -0.75536,   0.80224,  -0.12504,  -0.36146,   0.44908
  -0.34674,   0.24327,  -0.93750,  -0.76007,  -0.44465,   0.77828,  -0.91978,  -0.35142,  -0.93750,  -0.93750
   0.18461,   0.17669,   0.16623,   0.76090,  -0.40435,  -0.93750,   0.89541,  -0.93750,   0.93750,   0.36610
   0.47890,   0.93750,  -0.83502,  -0.56662,  -0.48883,   0.02245,  -0.86072,   0.15983,  -0.66336,   0.93750
   0.57184,  -0.66827,   0.36860,  -0.80897,  -0.79385,   0.20778,   0.29803,   0.05392,  -0.00679,  -0.04352
   0.16883,  -0.68413,   0.25295,   0.04381,  -0.02798,  -0.74968,   0.56203,   0.01119,   0.67145,  -0.72680
  -0.44630,   0.79979,  -0.45637,   0.19243,   0.12544,  -0.87351,  -0.68511,   0.92763,  -0.19570,   0.02343
  -0.93750,  -0.93750,   0.75147,  -0.93750,  -0.93750,  -0.93361,  -0.93750,  -0.93750,  -0.01252,  -0.93750
  -0.07100,  -0.14777,  -0.93750,   0.87395,   0.87693,   0.23774,  -0.76796,  -0.25001,   0.30953,   0.38215
   0.62038,  -0.43991,   0.31409,  -0.81740,   0.38165,   0.39907,   0.36180,  -0.15252,   0.80457,  -0.93249
   0.27490,   0.60953,   0.93750,  -0.93750,   0.93750,  -0.93750,  -0.93750,  -0.54443,   0.35583,   0.93750
  -0.77858,   0.87561,  -0.91053,   0.93750,   0.93750,   0.67095,  -0.80724,   0.90821,  -0.75259,  -0.93750
   0.47295,  -0.44561,  -0.93750,  -0.07147,   0.45737,  -0.91701,   0.73823,  -0.93750,   0.74497,   0.35105
  -0.93750,  -0.87828,  -0.93750,   0.04642,  -0.16287,   0.18336,  -0.18339,  -0.02562,   0.62721,   0.02072
  -0.93750,   0.35832,   0.76515,   0.40858,  -0.93750,  -0.11874,   0.83730,  -0.48342,  -0.50596,   0.93750
   0.08106,   0.10549,   0.81531,   0.60833,   0.19445,   0.86366,   0.25022,   0.11481,  -0.92555,   0.54710
   0.93750,  -0.75488,  -0.19359,   0.93750,   0.93750,  -0.93750,   0.93750,   0.93750,  -0.09908,   0.93750
  -0.22952,  -0.02412,  -0.61996,  -0.15547,  -0.30864,  -0.72793,   0.74419,   0.18650,  -0.81765,  -0.80643
  -0.93750,  -0.90182,  -0.64755,  -0.90757,  -0.90395,   0.21082,  -0.69752,   0.34853,  -0.46910,  -0.93750
   0.87332,   0.56066,  -0.93750,  -0.47170,  -0.69267,   0.25952,  -0.03110,   0.00480,  -0.79241,  -0.93750
  -0.81320,   0.51519,  -0.12666,  -0.16608,   0.55564,   0.93750,  -0.47845,  -0.87396,  -0.76184,   0.56197
  -0.58075,  -0.80368,  -0.93750,   0.46783,   0.61912,   0.10225,  -0.93750,   0.93750,   0.09108,  -0.16424
  -0.56220,   0.53558,   0.83260,   0.93118,  -0.93750,  -0.93750,  -0.61258,   0.93750,   0.26462,   0.29844
   0.87665,  -0.75144,  -0.89776,  -0.04598,   0.41191,  -0.02589,  -0.73680,   0.93750,   0.71407,   0.18572
  -0.69356,   0.19396,   0.67845,   0.84791,  -0.31793,  -0.02492,  -0.63910,  -0.01251,   0.75521,  -0.53358
   0.93750,  -0.55660,  -0.93750,   0.60791,  -0.93750,   0.93750,  -0.93750,  -0.33107,   0.61963,  -0.15850
   0.93750,   0.71220,   0.65317,  -0.93750,  -0.87307,   0.83926,  -0.70672,  -0.00207,  -0.93750,  -0.87358
   0.93750,   0.88294,   0.93750,   0.18397,  -0.14326,  -0.13927,   0.25375,   0.40889,  -0.93750,  -0.93750
   0.07190,   0.93750,  -0.93750,   0.08738,  -0.93750,  -0.93750,  -0.93750,  -0.68655,  -0.93750,  -0.76208
  -0.93750,  -0.93750,  -0.02981,  -0.93750,   0.28914,   0.07974,  -0.93750,   0.84740,  -0.93750,   0.12017
  -0.54368,   0.93750,  -0.85528,   0.41079,  -0.20202,  -0.26648,  -0.88093,  -0.11704,   0.70269,   0.93750
  -0.93750,   0.93750,   0.85464,  -0.93750,   0.32645,  -0.70905,   0.75843,  -0.93750,   0.93750,  -0.51221
   0.10494,  -0.55362,  -0.77736,  -0.64521,  -0.81077,  -0.79699,   0.32823,  -0.82054,   0.14186,   0.30196
   0.31099,  -0.61611,  -0.88066,   0.20140,   0.48803,   0.88143,   0.49297,  -0.50858,   0.16243,  -0.74138
   0.54833,  -0.03975,  -0.93750,  -0.51220,  -0.93750,  -0.93750,  -0.80402,  -0.30531,   0.93750,  -0.16896
   0.56421,   0.08104,  -0.93750,   0.68517,  -0.93750,  -0.93750,   0.93750,   0.87834,   0.14984,   0.14775
  -0.02193,   0.68769,   0.02240,  -0.75099,   0.47145,  -0.60693,   0.67732,  -0.35334,  -0.14099,  -0.57226
  -0.69952,  -0.13429,   0.93750,  -0.53595,   0.93750,   0.83255,  -0.10211,   0.14185,  -0.93750,  -0.93750
   0.93750,  -0.93750,   0.08876,  -0.59917,  -0.84251,  -0.64238,  -0.93750,   0.81980,   0.73851,  -0.31227
  -0.93750,   0.34649,  -0.93750,   0.03973,  -0.93750,   0.87488,  -0.93750,  -0.75874,  -0.54916,   0.39162
   0.93692,  -0.05741,  -0.44696,  -0.90298,   0.13551,  -0.59530,   0.06750,  -0.45923,   0.17941,  -0.77348
  -0.75154,   0.78027,  -0.93750,   0.47799,   0.59568,  -0.53151,  -0.93750,  -0.65173,  -0.93750,   0.23568
  -0.61653,  -0.50722,   0.93750,  -0.53314,  -0.81768,   0.81000,  -0.43521,  -0.12178,  -0.61542,   0.41097
   0.93750,  -0.93750,   0.44118,  -0.93750,   0.89520,   0.08576,   0.51009,  -0.93750,  -0.63015,  -0.21704
   0.51499,  -0.13812,  -0.93750,  -0.72332,  -0.15527,  -0.93750,   0.69724,  -0.07956,  -0.93750,  -0.93750
  -0.53109,   0.87520,   0.02379,   0.55422,  -0.87845,  -0.74087,   0.93750,  -0.41261,   0.23318,   0.04341
  -0.25770,   0.35545,   0.54825,   0.22636,   0.35747,   0.20374,  -0.50058,   0.50592,  -0.19710,  -0.15793
  -0.04249,   0.68042,   0.46160,  -0.53189,   0.61007,   0.57735,  -0.65683,  -0.78130,  -0.47665,  -0.22614
  -0.82038,  -0.88158,   0.47480,   0.61656,  -0.62551,  -0.60466,  -0.58841,   0.93750,  -0.93750,  -0.81097
   0.89417,   0.17621,  -0.93750,  -0.62755,  -0.93750,   0.61366,  -0.12588,  -0.30219,  -0.09658,  -0.24640
  -0.75781,   0.93750,  -0.90093,   0.66552,   0.06099,   0.82592,  -0.92891,  -0.86353,   0.84284,  -0.51724
  -0.13286,  -0.27193,  -0.74791,  -0.43972,   0.93750,  -0.57264,  -0.06971,  -0.93750,  -0.12383,  -0.44685
   0.50111,   0.35544,  -0.93750,   0.93750,   0.64906,  -0.93750,  -0.93750,  -0.93750,   0.93750,   0.93750
   0.87751,  -0.28199,  -0.93750,   0.35587,   0.93750,  -0.81191,   0.93750,  -0.59130,  -0.92041,  -0.62195
   0.93750,   0.93750,  -0.08149,   0.93750,   0.53148,  -0.70578,   0.54391,   0.93750,  -0.77030,  -0.93750
   0.58742,  -0.63534,   0.82154,  -0.75166,   0.93750,  -0.93750,  -0.42701,   0.93750,   0.45662,  -0.04751
   0.93750,   0.26891,   0.18139,  -0.18615,   0.93750,  -0.69102,   0.86964,  -0.89496,  -0.87095,  -0.79564
  -0.08192,   0.17270,   0.43224,   0.46751,   0.41577,  -0.09801,   0.25468,   0.32980,  -0.40616,   0.58016
  -0.93750,  -0.90586,   0.93750,  -0.93750,  -0.16447,   0.93750,  -0.72927,   0.93750,  -0.73076,   0.02122
   0.93750,  -0.65863,  -0.27088,   0.49443,  -0.92965,  -0.78377,   0.93750,  -0.57592,  -0.76225,   0.93750
  -0.88271,   0.93750,   0.62266,  -0.81437,  -0.90737,  -0.04757,  -0.19991,  -0.26976,   0.92824,   0.09388
  -0.28283,   0.71184,  -0.38153,  -0.34586,   0.12644,  -0.01484,   0.11525,   0.93750,   0.06383,  -0.75834
   0.28171,   0.76618,  -0.25953,   0.86738,   0.17019,  -0.36521,   0.79854,  -0.17654,  -0.31340,  -0.39630
   0.52890,   0.75893,  -0.60708,   0.69360,  -0.57026,  -0.71150,  -0.14620,  -0.68639,   0.80767,   0.44065
  -0.93750,  -0.93750,   0.93750,  -0.93750,  -0.66323,  -0.00562,   0.93750,   0.93750,   0.84027,  -0.55148
   0.86948,  -0.24294,  -0.61779,   0.22330,  -0.23047,   0.25546,   0.44180,   0.81267,  -0.24685,  -0.49272
   0.01321,   0.32727,   0.25079,   0.86854,  -0.68307,   0.51911,   0.44054,  -0.80609,   0.17249,   0.43058
  -0.06432,   0.20512,  -0.35713,   0.53263,  -0.04080,   0.49112,   0.49236,   0.64177,   0.28953,   0.38943
  -0.31240,   0.83244,   0.43822,   0.04261,  -0.75350,  -0.17395,  -0.21274,   0.75423,  -0.74613,   0.56557
   0.50714,   0.81226,  -0.51547,  -0.75715,  -0.13208,   0.07153,   0.38893,  -0.83280,  -0.37294,  -0.57098
   0.52519,   0.55804,   0.07204,   0.66556,   0.56891,  -0.59957,  -0.28046,  -0.71201,   0.45806,  -0.56996
   0.68572,  -0.06219,   0.86533,   0.93750,  -0.87684,  -0.52796,   0.87820,   0.86997,  -0.75892,  -0.87283
   0.40741,   0.56896,  -0.11663,   0.52702,   0.01260,   0.68910,   0.73490,  -0.48175,  -0.75020,  -0.79742
  -0.12777,  -0.14215,  -0.18512,   0.80833,  -0.80589,   0.25881,   0.10263,  -0.93750,   0.93750,  -0.87916
  -0.87578,  -0.81936,  -0.82707,   0.65168,  -0.79177,  -0.12742,  -0.74085,   0.53266,   0.93750,   0.93750
  -0.51381,   0.60606,  -0.70784,   0.93750,  -0.93750,  -0.93750,  -0.93750,  -0.93750,   0.92135,   0.93750
   0.93750,   0.93750,  -0.10884,   0.29700,  -0.03810,   0.16718,  -0.37449,  -0.53582,  -0.52103,   0.93750
  -0.65837,  -0.14020,  -0.71856,  -0.93750,   0.93750,   0.10882,   0.66676,  -0.33189,   0.93750,  -0.50563
   0.37998,  -0.49751,  -0.13097,   0.43281,  -0.66501,   0.68560,   0.51632,  -0.63952,   0.23892,   0.22565
  -0.81188,  -0.30923,   0.37127,  -0.52022,   0.48774,   0.93750,  -0.31429,  -0.38661,   0.68952,  -0.93750
   0.16258,  -0.49395,   0.76184,  -0.93750,  -0.04261,  -0.93750,  -0.80342,   0.18945,  -0.06962,   0.74649
   0.93750,   0.33910,  -0.13790,   0.17266,   0.93750,   0.46246,  -0.91284,   0.64552,   0.52977,   0.93750
  -0.50832,   0.13695,   0.74816,  -0.73060,   0.71269,  -0.89050,  -0.87848,   0.93750,  -0.81267,   0.87601
  -0.43875,   0.29634,   0.07101,  -0.77339,   0.60273,  -0.23286,   0.70114,   0.59005,  -0.08500,   0.14554
  -0.64105,  -0.56213,  -0.64386,   0.66656,  -0.80560,  -0.34420,  -0.49649,  -0.81096,   0.02003,  -0.38700
   0.35839,   0.79252,  -0.87904,  -0.74969,   0.86994,   0.93750,  -0.80727,   0.93750,   0.93750,  -0.26434
   0.43982,   0.45161,   0.48894,  -0.22407,  -0.51116,  -0.17042,  -0.75637,   0.43034,   0.68889,   0.11532
   0.80852,   0.79408,  -0.85372,   0.81207,  -0.74258,   0.83384,  -0.78660,  -0.05521,  -0.63294,   0.93750
   0.43131,  -0.74120,  -0.85501,   0.93750,   0.42429,  -0.86797,  -0.82991,  -0.39854,   0.41590,  -0.22816
  -0.93750,   0.78406,   0.93665,   0.93750,  -0.56189,   0.93750,   0.93750,  -0.93750,   0.91502,  -0.18580
   0.75226,  -0.21736,   0.69871,   0.26029,   0.24735,  -0.74003,   0.61593,  -0.57020,  -0.45322,  -0.17425
  -0.52693,  -0.43134,   0.87142,   0.58430,  -0.80752,  -0.06828,   0.87697,  -0.93611,   0.62491,  -0.04928
  -0.34690,  -0.93750,  -0.93750,  -0.68997,   0.93750,   0.33321,   0.90992,   0.93750,  -0.08185,   0.93750
   0.14722,  -0.89178,   0.09335,   0.56941,   0.63218,  -0.93750,  -0.90098,   0.93750,   0.60149,  -0.80110
  -0.53937,  -0.87467,   0.93750,  -0.80620,   0.93380,   0.79890,  -0.19639,   0.93750,   0.68431,   0.08752
  -0.61716,   0.41948,  -0.46492,   0.10154,   0.93750,  -0.93671,   0.93750,   0.93750,  -0.51394,   0.36330
   0.87296,   0.93750,  -0.46697,   0.93750,   0.42068,  -0.93750,   0.42580,   0.61812,  -0.81638,  -0.93750
   0.86744,   0.74426,  -0.26140,  -0.09139,  -0.64809,   0.16082,  -0.42117,   0.59051,   0.72128,   0.36529
  -0.03170,   0.03218,   0.72051,   0.38641,   0.60463,  -0.00980,   0.55675,   0.25689,  -0.09076,   0.00394
   0.81056,   0.16449,   0.87500,   0.08581,  -0.40735,  -0.52540,   0.66684,  -0.78815,  -0.29030,  -0.41888
  -0.79708,   0.45488,  -0.23359,   0.93750,  -0.72963,   0.87657,  -0.84346,  -0.65273,  -0.93750,  -0.71546
  -0.81317,   0.87419,   0.39324,   0.81626,  -0.77730,   0.58065,   0.93750,  -0.56980,  -0.35549,  -0.88568
   0.52821,  -0.10771,   0.24857,  -0.57100,  -0.19853,   0.20109,   0.78014,   0.33432,  -0.14885,   0.17732
   0.40694,  -0.93479,   0.03328,   0.08854,  -0.60126,  -0.88540,  -0.64710,  -0.67574,  -0.87791,  -0.74804
  -0.48358,   0.43264,  -0.80524,  -0.69973,   0.61727,  -0.10397,   0.93750,   0.56155,  -0.59340,  -0.62078
   0.93750,  -0.88582,  -0.60405,  -0.87830,   0.93750,   0.14811,  -0.81041,   0.82583,   0.93750,   0.67543
   0.02423,   0.79779,   0.30604,   0.32956,  -0.87142,   0.57278,   0.13969,  -0.32586,  -0.16651,  -0.88216
  -0.03861,   0.62677,  -0.56394,   0.45129,   0.57479,   0.87512,  -0.75140,  -0.86991,  -0.93750,   0.88138
  -0.33995,  -0.19074,  -0.28604,  -0.31101,   0.68050,  -0.67917,  -0.77034,  -0.93750,   0.47672,  -0.93750
   0.81304,  -0.43329,   0.28492,  -0.76096,  -0.74638,   0.93750,  -0.48181,  -0.43870,   0.04031,  -0.74440
  -0.41404,   0.07125,  -0.77225,   0.75507,   0.56865,   0.87637,  -0.93750,   0.35094,   0.04882,  -0.64772
   0.61666,  -0.22418,   0.09888,  -0.93750,   0.23698,  -0.29649,   0.93750,  -0.93750,  -0.93750,  -0.93750
  -0.11913,   0.52937,   0.77449,   0.80588,  -0.13349,  -0.87651,   0.41552,  -0.62137,   0.93750,   0.88365
   0.82921,   0.93750,   0.93750,   0.93750,  -0.65498,  -0.77069,   0.32395,   0.93750,  -0.83020,  -0.07815
  -0.73867,  -0.26976,   0.86996,   0.63374,  -0.45050,   0.58416,  -0.64944,  -0.93750,  -0.24771,   0.93750
   0.93750,  -0.62350,   0.29747,  -0.54551,  -0.50857,  -0.61207,   0.26411,  -0.42657,  -0.04417,  -0.31493
   0.77316,  -0.11581,  -0.88628,   0.93750,  -0.20610,   0.14023,   0.93750,   0.09250,  -0.93750,   0.74771
   0.58901,  -0.54623,  -0.23049,  -0.14931,  -0.36154,   0.62882,  -0.16551,   0.64041,   0.56114,  -0.39971
  -0.53181,   0.07062,   0.56890,  -0.82846,  -0.18579,   0.75842,   0.77336,   0.92304,  -0.15267,   0.74483
   0.24295,   0.78232,  -0.93750,  -0.75507,   0.90941,  -0.81155,  -0.38189,   0.93750,   0.93750,   0.29106
  -0.68038,   0.76772,  -0.93750,   0.41165,   0.47232,  -0.80039,   0.49308,   0.93750,  -0.42467,  -0.93355
   0.29834,  -0.03975,   0.00897,   0.03407,   0.93750,   0.49134,  -0.15635,  -0.42407,  -0.93750,  -0.87311
   0.23992,  -0.31749,  -0.87376,  -0.61668,   0.93750,  -0.80913,  -0.69106,  -0.82019,   0.08392,   0.84958
  -0.75381,   0.82676,   0.20518,   0.45906,   0.03063,  -0.48763,  -0.64645,   0.69778,   0.09813,   0.36806
  -0.86941,   0.87744,   0.48288,  -0.58206,   0.93750,   0.93750,  -0.87738,  -0.74678,  -0.66945,   0.48979
   0.45014,  -0.89861,   0.90533,  -0.10825,   0.93750,  -0.08894,  -0.43771,  -0.89211,   0.03861,   0.62076
  -0.55976,   0.93750,   0.87146,  -0.37863,   0.13003,  -0.30553,  -0.19550,  -0.40492,  -0.86992,  -0.12475
  -0.39933,   0.26900,   0.16293,  -0.30598,   0.22895,   0.39590,  -0.19819,   0.93750,   0.87957,   0.93750
  -0.28303,  -0.56530,  -0.93750,  -0.40698,  -0.93750,   0.93750,   0.93750,  -0.74560,   0.59512,   0.09456
  -0.93750,   0.86164,   0.93750,  -0.93750,  -0.93750,   0.90177,  -0.93750,  -0.93750,   0.93750,  -0.86698
  -0.44323,  -0.83799,  -0.93750,   0.88000,   0.93750,  -0.89177,  -0.87554,  -0.80577,   0.86455,   0.22885
   0.27163,  -0.73634,  -0.27765,   0.60515,  -0.05386,   0.80664,  -0.85912,  -0.10293,   0.74744,  -0.55243
  -0.05490,  -0.11373,   0.03374,   0.61758,  -0.57926,  -0.46785,  -0.15577,   0.61774,  -0.55407,   0.80683
  -0.93750,   0.93750,  -0.13591,   0.93750,   0.54749,  -0.93750,  -0.93750,  -0.84881,   0.64502,  -0.93750
   0.37578,  -0.17504,   0.62732,  -0.24839,   0.19441,  -0.77097,  -0.75917,  -0.30192,   0.43497,  -0.93750
   0.52788,  -0.15815,   0.93750,   0.86338,   0.87368,   0.88458,   0.39229,   0.26014,   0.93750,  -0.93750
   0.67256,   0.65414,  -0.93750,  -0.93750,  -0.92030,   0.32880,   0.79950,   0.86476,   0.41404,   0.93750
  -0.93750,   0.93750,   0.36209,  -0.17198,   0.88349,   0.33608,   0.82546,  -0.50607,  -0.08933,  -0.93750
   0.18125,  -0.93750,   0.93750,   0.84949,   0.13372,  -0.87890,   0.86291,  -0.93750,   0.93750,   0.54850
  -0.32596,  -0.93750,   0.60518,  -0.93750,  -0.34590,  -0.91279,   0.47582,   0.62917,   0.27293,   0.16140
  -0.93750,   0.92642,   0.40806,   0.21358,  -0.85186,   0.93750,   0.12717,  -0.93750,  -0.93750,  -0.93750
   0.80195,  -0.61655,  -0.64306,  -0.86560,  -0.93750,   0.46577,  -0.04048,  -0.82001,   0.85209,  -0.74488
  -0.66199,  -0.93750,   0.40697,  -0.42064,  -0.93750,   0.10996,  -0.62357,   0.71913,   0.07287,  -0.87707
   0.93750,  -0.62090,   0.87418,   0.87450,   0.85921,   0.07474,  -0.68366,  -0.82021,  -0.66554,  -0.74975
  -0.58903,  -0.09458,  -0.71787,  -0.87497,   0.15779,   0.87456,  -0.71406,   0.46704,   0.52252,   0.18247
  -0.47186,   0.93750,  -0.02858,   0.93750,   0.87422,   0.93750,  -0.06010,  -0.21634,  -0.93750,  -0.93431
  -0.10009,  -0.41222,  -0.91287,  -0.31124,  -0.48498,  -0.93750,  -0.93750,   0.31380,  -0.46973,   0.93750
   0.30550,  -0.73907,   0.86178,   0.17841,  -0.45151,  -0.43547,  -0.05401,  -0.24515,   0.15244,   0.93750
   0.25391,   0.62645,  -0.72436,  -0.64968,   0.10284,   0.70135,   0.65407,   0.08347,   0.55557,  -0.92795
   0.93750,   0.93750,  -0.93750,  -0.68918,  -0.93750,  -0.13838,  -0.43232,  -0.18255,   0.11278,   0.19321
   0.53716,  -0.46701,  -0.84179,   0.91988,  -0.63972,   0.69652,  -0.74827,  -0.93750,   0.80361,   0.23921
   0.93750,  -0.88127,   0.18922,   0.72944,   0.65543,  -0.80539,  -0.64945,   0.03190,  -0.82289,   0.00587
  -0.75407,  -0.93750,   0.54465,   0.26641,   0.93750,  -0.93750,   0.93750,   0.47037,   0.69263,  -0.08256
  -0.87630,  -0.93750,   0.21431,   0.88046,   0.69420,   0.71631,  -0.68326,  -0.07530,   0.93750,  -0.93750
  -0.44257,  -0.24666,   0.75007,  -0.28909,   0.80566,  -0.12845,   0.75530,  -0.48395,   0.15483,  -0.60650
   0.93750,  -0.68472,  -0.16806,  -0.40724,   0.93750,  -0.90317,   0.53816,   0.55119,  -0.21326,  -0.15821
   0.70825,  -0.61258,   0.73887,  -0.10123,   0.29344,  -0.06954,  -0.56646,   0.93750,  -0.32382,   0.88254
   0.74357,   0.88498,  -0.53677,  -0.25910,   0.45518,  -0.70454,  -0.91642,   0.93734,  -0.71240,   0.81371
   0.71802,  -0.93750,  -0.11861,  -0.93750,   0.93750,  -0.53011,   0.75975,  -0.50902,  -0.69662,   0.40412
  -0.17633,   0.93750,   0.42411,   0.57476,  -0.61475,  -0.93750,   0.80306,   0.93750,   0.93750,  -0.72896
  -0.72536,   0.93750,  -0.93750,   0.90601,   0.39286,   0.88270,   0.34026,   0.93750,   0.40741,  -0.80295
  -0.30919,   0.78148,   0.74122,  -0.37265,   0.26743,  -0.45627,  -0.61282,   0.59190,  -0.14843,   0.01047
  -0.50903,   0.21018,  -0.30470,   0.87204,  -0.16374,   0.19888,   0.93750,   0.74622,  -0.17527,   0.56645
   0.72648,   0.06314,   0.50899,  -0.73651,   0.25720,  -0.12385,  -0.45976,   0.30126,  -0.87136,  -0.33118
   0.51239,   0.16262,  -0.46532,   0.27544,  -0.44652,   0.31268,   0.47921,  -0.50293,   0.63502,   0.54361
  -0.87816,   0.14674,   0.74852,   0.32037,  -0.56966,  -0.75012,   0.34778,  -0.32393,  -0.21793,  -0.93750
   0.02769,  -0.68148,   0.09590,   0.93750,   0.93750,  -0.93750,   0.93750,   0.58192,   0.93750,   0.31962
   0.86299,   0.44171,  -0.09911,   0.43560,   0.32879,  -0.87149,  -0.44682,   0.54474,  -0.93750,   0.12307
   0.93750,   0.93750,  -0.35978,  -0.93750,  -0.93750,   0.31560,   0.74666,   0.78885,  -0.09291,   0.93750
  -0.26741,   0.93750,   0.93750,   0.17107,   0.72145,   0.76146,  -0.26124,   0.44530,   0.07613,  -0.56769
   0.93750,  -0.93750,  -0.37275,  -0.93750,   0.04935,  -0.92047,  -0.93750,  -0.70783,   0.55823,   0.93750
  -0.12030,  -0.81530,   0.24512,   0.93750,   0.93750,   0.93750,  -0.73898,  -0.87012,   0.60898,  -0.93750
  -0.13509,   0.61445,  -0.86424,   0.25112,  -0.12285,   0.82079,   0.49554,  -0.61980,  -0.86089,   0.67067
   0.69082,  -0.22405,  -0.51662,  -0.69938,   0.93750,   0.87445,  -0.54014,   0.08115,  -0.44746,  -0.75060
   0.93750,  -0.42880,   0.29184,  -0.81571,   0.87205,   0.61146,   0.93750,   0.76316,  -0.49129,   0.93750
   0.93750,  -0.64125,  -0.28654,   0.21404,   0.47775,   0.93750,  -0.93750,   0.16011,  -0.48633,  -0.24412
   0.69531,   0.57261,  -0.51151,  -0.80570,  -0.14620,   0.20258,   0.64991,   0.12271,  -0.45782,  -0.32126
   0.43070,  -0.11439,   0.86887,  -0.93750,   0.62074,  -0.93750,   0.22777,   0.45139,  -0.18362,  -0.93750
   0.84307,   0.67514,  -0.50010,  -0.30906,   0.05654,   0.63095,  -0.18982,  -0.21714,  -0.83148,  -0.18029
   0.59212,   0.45513,  -0.22110,  -0.38857,   0.87200,  -0.74301,   0.75816,  -0.77265,   0.66909,  -0.88654
   0.19278,  -0.10969,   0.58056,  -0.74653,  -0.76788,  -0.93140,   0.38528,  -0.78771,   0.28940,   0.81117
  -0.61461,   0.55115,   0.78887,  -0.24817,   0.92549,   0.17737,  -0.69621,   0.31112,  -0.79751,   0.43207
   0.93750,  -0.34634,   0.89181,  -0.16189,   0.93750,   0.93750,  -0.58065,  -0.93750,   0.93564,  -0.93750
  -0.42650,  -0.93750,   0.93750,   0.93750,   0.06381,  -0.93750,   0.29256,   0.93750,   0.31097,  -0.93750
  -0.75701,  -0.43762,  -0.08999,   0.81758,  -0.28853,  -0.26390,   0.05283,  -0.37141,   0.27246,  -0.32274
  -0.36570,   0.10034,  -0.70950,  -0.85779,   0.73058,  -0.81149,   0.46094,  -0.85789,   0.58144,  -0.08702
  -0.87952,  -0.46768,   0.93750,  -0.68233,   0.93750,   0.23052,  -0.82996,  -0.13048,  -0.87192,  -0.69565
   0.63190,  -0.47265,   0.89596,  -0.19207,   0.88355,   0.93750,   0.93750,   0.62714,  -0.87001,  -0.45087
   0.25513,  -0.27945,  -0.66701,   0.05083,   0.04872,  -0.32877,   0.45644,   0.76151,  -0.21818,   0.55816
   0.42300,  -0.91228,  -0.93750,  -0.42070,   0.14422,  -0.87725,  -0.71642,  -0.85283,  -0.93750,  -0.93750
   0.93750,  -0.48375,  -0.93750,  -0.44793,  -0.43980,  -0.81729,  -0.62385,  -0.34381,  -0.32308,   0.24606
  -0.47422,   0.04663,   0.93750,   0.93750,   0.83541,   0.89280,  -0.88033,   0.38447,   0.07948,  -0.50542
  -0.23128,   0.58818,  -0.90405,  -0.93750,  -0.21573,   0.76352,  -0.93750,  -0.88434,   0.93750,   0.42953
   0.84666,  -0.71263,   0.28022,  -0.45826,   0.35559,   0.51485,   0.47736,  -0.31162,   0.79392,  -0.81949
  -0.93750,  -0.76167,  -0.88110,   0.93750,  -0.82421,   0.20542,  -0.12223,   0.93750,   0.34457,  -0.19781
   0.73171,   0.11299,   0.50516,  -0.46977,  -0.46261,   0.15216,   0.92357,  -0.19778,   0.04141,   0.54717
  -0.64710,   0.93750,   0.93750,  -0.20600,   0.66764,  -0.02954,   0.05972,  -0.87341,  -0.01908,  -0.88146
  -0.41684,  -0.93750,   0.93750,   0.18189,   0.48478,  -0.73122,  -0.78601,   0.15928,   0.45246,   0.93750
  -0.55325,   0.14654,  -0.31363,   0.50317,  -0.19259,  -0.74205,   0.93750,   0.06275,   0.33528,   0.14215
  -0.28159,  -0.11195,   0.03679,   0.05610,   0.44191,   0.00748,   0.11073,   0.25352,  -0.49388,   0.65120
   0.36729,   0.93057,   0.32151,  -0.93750,   0.93750,  -0.93750,  -0.44817,   0.46791,   0.61558,  -0.93750
  -0.62957,   0.93750,   0.47642,  -0.63941,  -0.86228,  -0.51559,  -0.66326,  -0.69496,   0.93750,  -0.82068
   0.93750,   0.45190,  -0.86880,   0.93750,   0.27117,  -0.49757,  -0.45418,   0.86667,  -0.93750,  -0.93750
  -0.93750,   0.08980,  -0.11380,  -0.87537,   0.81245,  -0.93750,   0.93750,  -0.81227,  -0.77376,   0.82918
   0.82791,   0.93750,  -0.32962,  -0.10113,  -0.78188,  -0.93750,   0.24854,  -0.58569,   0.93750,   0.20668
  -0.37839,  -0.87186,   0.93750,  -0.72568,   0.93750,  -0.20936,  -0.22486,   0.93750,   0.93750,  -0.81488
   0.86588,  -0.33549,  -0.01466,   0.47565,  -0.93750,   0.87635,   0.76617,   0.82488,  -0.93750,   0.81284
  -0.76821,   0.85731,  -0.93750,  -0.67906,   0.93750,   0.93750,   0.18635,   0.13687,  -0.11588,  -0.70102
   0.93750,  -0.26644,  -0.93750,   0.07098,   0.26515,   0.93750,  -0.87399,   0.37329,  -0.61585,  -0.93750
  -0.68328,   0.22672,   0.24902,  -0.13962,  -0.93750,   0.88819,   0.93750,   0.24627,   0.81530,   0.56766
   0.34074,  -0.37151,   0.93750,   0.93750,   0.93750,   0.38790,   0.86446,  -0.16307,  -0.20625,  -0.62927
  -0.93750,   0.02402,  -0.56249,   0.93750,  -0.02624,  -0.80454,  -0.58073,  -0.16458,  -0.70802,  -0.81715
  -0.58420,  -0.57199,  -0.27135,  -0.79685,  -0.81150,  -0.50268,   0.48405,   0.93750,  -0.40569,   0.63525
  -0.69380,  -0.93750,  -0.93750,  -0.47608,   0.73486,  -0.69527,  -0.81509,  -0.93750,  -0.69439,  -0.36146
  -0.13857,   0.12671,   0.37690,   0.33532,  -0.18869,  -0.44856,  -0.88561,  -0.93750,   0.79475,   0.01445
   0.45131,  -0.03469,  -0.81838,   0.24078,  -0.19991,   0.87173,   0.85580,  -0.14505,  -0.07481,  -0.16567
   0.44805,  -0.93750,   0.93750,  -0.88381,  -0.93750,   0.87213,   0.43114,   0.63992,   0.29504,   0.01775
  -0.58816,   0.55369,  -0.86099,   0.93750,  -0.72055,   0.57751,  -0.93750,  -0.10207,  -0.06825,  -0.93750
  -0.93750,   0.32436,  -0.93750,   0.77770,  -0.33325,   0.42140,  -0.93750,  -0.62360,  -0.37805,  -0.85794
   0.87924,  -0.67794,  -0.93750,   0.75459,  -0.81042,  -0.66738,   0.77570,   0.90809,   0.33924,  -0.93750
   0.40978,  -0.93750,   0.63841,   0.86890,  -0.67294,  -0.93750,   0.93750,   0.34833,  -0.73336,   0.52253
   0.31351,  -0.93750,   0.68655,  -0.08529,  -0.93750,  -0.93750,  -0.70527,   0.42018,  -0.77156,  -0.93750
   0.18423,  -0.72984,   0.88470,  -0.76438,   0.53940,   0.80889,  -0.51442,   0.63285,  -0.48377,   0.81980
   0.93750,   0.80884,   0.69267,  -0.80403,   0.77400,  -0.89910,   0.09421,  -0.18801,  -0.40435,  -0.36381
   0.47327,  -0.87292,  -0.49395,   0.93750,   0.93750,   0.47076,   0.93750,   0.13025,   0.26663,   0.47152
   0.87435,   0.28097,   0.61295,  -0.40877,  -0.00217,  -0.31989,  -0.47412,  -0.33679,  -0.68555,   0.31864
   0.16343,  -0.36073,  -0.10909,  -0.49241,  -0.76510,  -0.61336,   0.36110,   0.93750,  -0.42918,  -0.13440
  -0.78818,   0.20402,  -0.27198,   0.93750,   0.68499,  -0.69035,  -0.74900,  -0.72382,   0.06224,  -0.54803
   0.81091,   0.92918,  -0.47231,  -0.31205,   0.39096,   0.24024,   0.92880,  -0.79811,  -0.31119,  -0.56878
   0.49824,  -0.09651,   0.59668,   0.83748,  -0.66805,   0.46269,  -0.89256,   0.61867,   0.60660,   0.63889
  -0.74379,  -0.87296,   0.46590,   0.68655,   0.00892,  -0.00986,   0.85787,  -0.28504,   0.58952,  -0.75806
   0.62536,   0.67713,   0.29482,  -0.70251,  -0.57974,   0.55295,   0.24221,  -0.81152,  -0.08940,  -0.63735
  -0.55038,  -0.01664,   0.81492,  -0.57831,  -0.00649,  -0.09145,   0.81289,   0.39151,  -0.81402,  -0.19310
   0.24967,   0.18653,  -0.93750,   0.93750,   0.50954,  -0.93750,   0.86923,   0.82438,   0.87098,   0.86347
   0.87699,  -0.69947,   0.93750,   0.88009,  -0.93750,   0.18527,  -0.19888,  -0.60499,   0.78771,   0.93750
  -0.75495,  -0.70140,   0.09084,   0.87344,  -0.42091,  -0.93750,  -0.89747,   0.84687,   0.37737,  -0.35596
   0.16957,   0.91107,  -0.27709,   0.93750,  -0.25177,  -0.35920,   0.30870,   0.76572,  -0.93750,   0.18811
  -0.93750,   0.93494,  -0.50075,   0.63156,   0.79229,  -0.54625,  -0.66486,   0.57578,   0.39613,  -0.03356
  -0.59970,   0.49209,  -0.31205,  -0.87957,  -0.58130,   0.73008,   0.31877,   0.59636,   0.15550,   0.56545
  -0.93750,  -0.84409,   0.79610,  -0.93750,   0.62819,   0.64806,   0.93750,   0.93750,   0.93750,   0.93750
   0.72038,   0.28451,  -0.02922,  -0.87483,  -0.08375,   0.31627,   0.63820,  -0.16579,  -0.55567,   0.16391
  -0.41201,   0.63757,  -0.93750,   0.88003,   0.19201,  -0.70664,  -0.12176,   0.35827,  -0.21419,   0.93750
  -0.67730,  -0.80381,   0.69884,  -0.76239,  -0.22405,   0.53253,  -0.87650,  -0.87377,   0.89692,  -0.63566
  -0.32084,  -0.00896,   0.92885,   0.34562,  -0.93750,  -0.31951,   0.18307,   0.46024,  -0.93750,   0.66085
  -0.87761,   0.01014,  -0.13857,  -0.53749,  -0.80942,   0.93750,  -0.23753,   0.30965,   0.51580,  -0.80502
   0.32628,   0.93750,   0.03747,  -0.93750,  -0.51910,  -0.43221,   0.34497,  -0.93750,   0.93750,   0.93750
   0.18301,   0.64178,  -0.09710,  -0.01498,   0.25527,  -0.93750,  -0.67693,   0.93750,  -0.93750,  -0.73962
   0.41581,   0.87282,  -0.24994,  -0.74287,   0.17169,   0.29340,   0.85524,  -0.68090,   0.04280,  -0.64598
  -0.16683,   0.75572,   0.16618,  -0.04364,   0.28185,   0.35505,  -0.42766,  -0.70060,   0.10670,   0.73731
  -0.28981,   0.93750,   0.70220,  -0.73062,  -0.37925,   0.17349,  -0.53005,  -0.72132,   0.27534,   0.20484
   0.12336,   0.25819,   0.91936,  -0.19651,   0.23093,   0.81301,   0.17932,   0.43179,  -0.57917,  -0.06831
   0.63927,   0.32085,  -0.44519,   0.93750,   0.93750,  -0.93750,  -0.88217,  -0.50465,   0.93750,  -0.67500
  -0.60755,  -0.47619,  -0.87661,  -0.50545,   0.11253,   0.93750,  -0.72195,  -0.93750,   0.93750,  -0.18249
  -0.88549,   0.88726,  -0.65578,   0.93750,  -0.88739,   0.12233,   0.88752,   0.64024,   0.46127,  -0.50380
   0.93750,   0.71403,  -0.41811,  -0.46248,  -0.63098,   0.40909,   0.93750,   0.93750,   0.93750,   0.05384
  -0.11359,  -0.32520,  -0.19757,  -0.67237,   0.22324,   0.43493,   0.59448,   0.87353,   0.23000,   0.50421
  -0.15797,   0.24290,   0.20984,   0.10995,   0.79940,  -0.48069,   0.06724,  -0.84855,   0.88154,   0.38365
   0.28950,  -0.93750,  -0.93750,   0.59565,  -0.93750,  -0.93750,   0.10246,   0.62723,  -0.03284,  -0.79959
   0.93750,   0.87882,  -0.07924,  -0.30687,   0.61042,  -0.79612,  -0.93750,  -0.20455,   0.87804,  -0.17449
   0.16482,  -0.40378,   0.56337,  -0.27738,   0.03522,  -0.20391,   0.66140,   0.76731,  -0.41682,  -0.12782
   0.81207,  -0.46668,  -0.82343,  -0.93750,   0.31611,  -0.93750,  -0.42680,  -0.43122,  -0.62898,  -0.45651
   0.29363,   0.86420,  -0.93750,  -0.51051,  -0.90580,  -0.76253,  -0.35158,  -0.08118,  -0.31385,   0.87564
  -0.31508,   0.55054,  -0.80367,  -0.78986,   0.38509,  -0.57674,   0.53508,   0.92021,   0.56505,   0.81912
  -0.46231,   0.11233,  -0.13972,   0.68964,  -0.16195,   0.45767,  -0.00968,   0.01063,   0.31461,   0.87548
   0.11997,   0.73420,  -0.76894,   0.87301,  -0.08124,  -0.10759,  -0.69529,   0.70721,   0.74584,  -0.75747
   0.73966,  -0.81914,  -0.40613,   0.54631,   0.58331,  -0.48699,   0.72031,   0.31596,   0.42001,  -0.85765
   0.93002,  -0.09762,   0.05286,  -0.31532,   0.87090,   0.81792,  -0.93750,   0.49462,   0.18847,   0.93750
  -0.84945,   0.08699,  -0.85281,   0.89373,  -0.15068,  -0.93750,   0.93750,  -0.93750,  -0.83750,  -0.93750
  -0.13176,  -0.63378,   0.87458,  -0.60961,   0.77670,  -0.68900,  -0.50772,   0.87031,   0.42907,   0.47055
  -0.75734,  -0.56690,  -0.86621,  -0.87320,   0.38708,   0.40225,  -0.42543,  -0.25873,   0.51367,   0.87481
  -0.43348,   0.55447,   0.49162,  -0.85120,   0.08559,  -0.93750,   0.30945,  -0.67833,   0.25069,   0.67326
  -0.75141,   0.93750,  -0.88311,   0.40164,  -0.75016,   0.93750,  -0.87370,  -0.93750,   0.73027,  -0.60097
  -0.20992,   0.05954,  -0.93750,  -0.46477,   0.93750,   0.12920,  -0.93750,  -0.22812,   0.16385,   0.10987
  -0.93750,  -0.67453,  -0.11255,   0.10881,  -0.93750,   0.58202,  -0.47540,   0.80960,  -0.61653,  -0.93750
   0.72961,  -0.79657,  -0.61414,   0.61791,  -0.51281,   0.93750,  -0.93750,  -0.18851,  -0.93750,   0.15747
  -0.80641,   0.93750,   0.37971,  -0.74980,   0.45774,  -0.00485,   0.75875,  -0.93750,  -0.93750,   0.93750
   0.63630,   0.32086,  -0.62056,   0.36549,  -0.30999,  -0.73365,   0.92229,  -0.80705,   0.89746,  -0.36181
  -0.86872,   0.09060,   0.74896,   0.54754,  -0.93750,   0.93750,  -0.32025,  -0.75377,   0.05642,  -0.07641
   0.85635,  -0.42389,   0.60404,  -0.25028,  -0.36862,  -0.56873,   0.54002,   0.49228,   0.33787,   0.27396
   0.74287,   0.87057,  -0.88141,  -0.92223,  -0.64854,   0.73901,  -0.93750,  -0.27229,  -0.93750,  -0.19093
   0.28517,  -0.93750,  -0.13161,  -0.39304,   0.93750,  -0.93750,  -0.89885,   0.93750,   0.93750,   0.93750
  -0.44400,   0.33771,  -0.61118,  -0.62553,   0.88300,   0.17604,   0.18258,  -0.93750,   0.48637,  -0.49072
   0.63525,  -0.46568,   0.23083,  -0.55658,  -0.09358,  -0.58428,   0.17679,   0.18354,   0.21556,   0.63221
  -0.85530,   0.48944,  -0.93750,  -0.74959,  -0.52955,  -0.20605,  -0.75543,   0.93750,  -0.80199,   0.93750
   0.93750,   0.84406,   0.93750,   0.93750,  -0.93750,   0.93750,   0.64417,  -0.71463,   0.32888,  -0.79971
  -0.88588,   0.93750,   0.70971,  -0.36377,  -0.54263,   0.74873,   0.42549,  -0.79347,  -0.49900,  -0.87660
  -0.70464,  -0.55627,  -0.18199,  -0.00383,   0.27607,   0.51002,   0.00217,   0.54505,  -0.47846,  -0.29327
  -0.32385,   0.11010,  -0.84843,  -0.44390,   0.75566,  -0.61825,  -0.80239,   0.45778,  -0.51997,   0.01045
   0.33974,  -0.31481,   0.10896,   0.59162,  -0.93750,  -0.93750,  -0.47754,   0.40182,  -0.88705,  -0.55039
  -0.93750,   0.93750,  -0.61757,  -0.60663,  -0.93750,  -0.93750,  -0.93750,  -0.93750,  -0.93750,  -0.45796
   0.33741,   0.20430,   0.88088,  -0.09851,  -0.93750,   0.93750,  -0.10085,   0.93750,   0.27121,  -0.71285
  -0.55361,   0.93750,   0.79839,   0.86812,  -0.45551,   0.15398,   0.93750,  -0.69474,   0.26784,   0.93750
   0.69593,   0.66208,   0.93750,  -0.66768,  -0.70221,  -0.24054,   0.93750,  -0.93750,  -0.29652,  -0.33873
   0.58978,   0.90456,  -0.93750,  -0.93750,   0.10996,   0.93750,  -0.93750,   0.27293,   0.59649,  -0.93750
   0.41581,  -0.79786,   0.93750,  -0.82729,   0.87752,  -0.81649,  -0.72388,   0.48542,  -0.56901,   0.93750
   0.93750,  -0.41090,   0.03912,  -0.93750,  -0.08264,   0.24414,  -0.42021,  -0.24921,  -0.83862,  -0.54345
   0.14504,   0.93750,   0.93750,  -0.32652,   0.85248,  -0.81890,  -0.93750,  -0.34543,  -0.87132,   0.01427
  -0.62678,  -0.86547,   0.67765,  -0.87437,  -0.78333,   0.42045,  -0.80749,  -0.62168,  -0.92136,   0.34037
   0.93750,  -0.93750,  -0.04546,  -0.90163,  -0.74961,  -0.70543,  -0.07778,  -0.41552,  -0.67345,   0.68817
   0.75640,  -0.93750,   0.87057,   0.93750,   0.93750,  -0.93750,  -0.67204,   0.93750,   0.80022,   0.93750
  -0.40942,   0.58746,   0.81593,   0.15033,   0.43154,   0.87547,  -0.87770,  -0.81087,   0.39504,  -0.73885
   0.93750,   0.93750,  -0.24498,   0.15601,  -0.85674,  -0.39736,   0.93750,   0.93750,  -0.76419,  -0.56611
   0.74633,   0.93750,   0.22625,  -0.92087,  -0.74612,  -0.57598,   0.93750,  -0.26172,   0.57739,   0.29993
   0.86682,   0.92072,   0.07640,  -0.71908,  -0.46914,   0.13271,   0.92636,   0.42625,  -0.52644,  -0.03133
   0.93750,  -0.93750,   0.83473,   0.46161,   0.93750,   0.82729,  -0.93750,  -0.56962,   0.33050,  -0.39203
   0.41903,  -0.83148,  -0.87180,   0.82472,   0.39290,   0.62117,   0.45282,  -0.15132,  -0.52229,  -0.11148
  -0.53634,   0.86657,   0.82194,  -0.04659,  -0.62377,   0.62287,   0.77252,   0.65549,  -0.11490,   0.08246
   0.64649,   0.67867,   0.01072,  -0.44132,  -0.71659,   0.49234,   0.65458,   0.87958,  -0.93750,   0.12668
   0.42719,   0.93750,  -0.58126,   0.56623,   0.93750,  -0.93750,  -0.93750,  -0.49010,   0.40597,   0.93750
   0.35588,  -0.93750,   0.05969,   0.01653,  -0.93750,   0.73450,   0.07423,   0.72744,   0.61190,  -0.05829
  -0.93750,  -0.51131,  -0.86278,   0.34561,   0.39934,   0.91566,   0.08676,  -0.17171,  -0.34084,   0.27727
   0.38003,   0.34469,   0.93750,  -0.28198,  -0.93750,  -0.04251,   0.02822,  -0.19059,  -0.13300,  -0.93750
   0.70096,  -0.93750,   0.45228,   0.19992,   0.90356,  -0.87715,  -0.93750,  -0.87799,  -0.15070,   0.25193
  -0.77158,  -0.00465,   0.21191,  -0.81155,  -0.93750,  -0.56553,   0.93750,  -0.69019,   0.00183,  -0.86510
   0.73767,  -0.68715,  -0.09052,  -0.87587,   0.88066,  -0.77292,   0.93750,   0.93750,  -0.79222,  -0.46878
   0.92131,   0.93750,   0.93750,  -0.93750,  -0.93750,   0.70672,   0.93750,   0.05035,  -0.20467,   0.62048
  -0.38919,   0.93750,  -0.33701,   0.58240,  -0.62516,  -0.87559,   0.93750,  -0.83973,  -0.91789,  -0.30233
   0.91117,   0.17207,  -0.55951,  -0.55797,  -0.65752,  -0.72477,   0.09168,  -0.17790,  -0.15869,   0.58699
  -0.93750,  -0.93750,   0.16831,   0.58546,  -0.93750,   0.66662,  -0.87871,   0.93750,  -0.25764,  -0.93750
   0.87912,  -0.90850,  -0.89834,   0.35664,   0.93750,  -0.60210,  -0.76958,   0.75050,   0.44613,   0.93750
   0.05839,   0.55284,   0.12429,  -0.30136,   0.31425,   0.60294,   0.62636,   0.61219,   0.68965,  -0.84973
   0.68053,   0.92899,  -0.31594,  -0.56309,   0.41824,  -0.46297,  -0.45965,   0.65148,   0.11312,   0.24397
  -0.62819,   0.87442,  -0.71249,   0.26991,   0.84069,   0.34956,   0.55474,   0.40893,   0.37406,  -0.52713
   0.83371,  -0.36613,   0.93750,  -0.27303,   0.31202,   0.47521,  -0.68252,  -0.93750,   0.42708,  -0.89015
   0.62734,  -0.39705,   0.60154,   0.69518,  -0.35212,  -0.51249,  -0.33328,  -0.57853,   0.09401,   0.66932
  -0.93750,  -0.93750,   0.08113,  -0.16888,   0.93750,   0.93750,   0.93750,   0.81901,   0.22433,   0.88201
   0.93750,   0.03327,   0.31498,  -0.93750,  -0.87549,   0.50631,  -0.80925,   0.11368,   0.59096,  -0.93750
   0.43267,   0.73284,   0.70810,  -0.31805,   0.51929,   0.51340,   0.61378,  -0.93750,   0.88160,  -0.66657
   0.93750,   0.87232,   0.02705,  -0.53488,   0.02707,  -0.93750,  -0.30591,   0.00147,  -0.93750,  -0.43747
  -0.93750,   0.29730,   0.80374,   0.11462,   0.00850,   0.12129,  -0.93750,  -0.57460,  -0.76423,  -0.11845
   0.37877,   0.65365,  -0.49315,  -0.21324,  -0.88349,   0.70824,   0.06973,  -0.50423,   0.57465,  -0.38994
  -0.56617,   0.93750,   0.44744,  -0.68004,  -0.23935,  -0.64363,   0.54332,  -0.74779,   0.42688,  -0.63793
   0.93750,  -0.35353,  -0.88581,   0.55980,   0.49656,  -0.80913,  -0.08566,  -0.88388,   0.07548,  -0.60757
   0.79594,  -0.59993,  -0.84565,   0.09111,  -0.93750,  -0.35689,   0.68730,   0.60723,  -0.10542,   0.14000
   0.31095,   0.37661,  -0.09473,  -0.36180,  -0.10840,  -0.10626,   0.03108,   0.46892,  -0.38976,  -0.60507
   0.79986,  -0.55579,  -0.92027,  -0.29082,   0.12385,  -0.93750,   0.87209,  -0.93750,   0.76368,   0.33487
   0.93750,  -0.93750,   0.07058,  -0.87825,   0.24512,   0.93750,  -0.37465,  -0.93750,  -0.93750,  -0.64307
   0.87656,  -0.17397,   0.87566,   0.02212,  -0.87793,   0.13265,   0.93750,  -0.93750,   0.93750,  -0.79542
   0.28915,   0.93750,  -0.13977,  -0.93750,   0.71954,   0.11196,   0.06211,   0.62609,  -0.32842,  -0.57553
  -0.52420,  -0.63796,  -0.19641,   0.76149,   0.59378,  -0.22651,   0.80380,  -0.13725,  -0.26307,  -0.56125
   0.93750,  -0.56983,  -0.87857,  -0.01919,   0.81607,   0.30374,   0.00100,  -0.05154,  -0.58793,   0.02315
  -0.11655,  -0.28679,   0.67662,  -0.11955,  -0.05208,   0.55971,  -0.48949,  -0.69985,   0.65083,   0.17109
  -0.23429,  -0.77665,   0.52568,  -0.40687,  -0.79746,  -0.17295,   0.70892,  -0.42790,   0.93750,   0.16631
   0.00183,  -0.89899,  -0.59152,  -0.62242,  -0.59409,   0.93750,   0.93750,  -0.87326,   0.02816,  -0.53751
  -0.28451,   0.93750,  -0.86549,   0.01278,  -0.44515,  -0.67881,  -0.35665,   0.27888,  -0.25297,  -0.67294
  -0.67588,   0.89956,  -0.93750,  -0.75398,  -0.86064,  -0.49106,   0.49594,   0.31067,   0.13449,  -0.36283
   0.58267,   0.50259,  -0.67728,   0.87578,   0.70122,  -0.93750,  -0.06078,   0.30789,   0.93750,  -0.24240
  -0.67231,  -0.29169,  -0.74793,  -0.40742,   0.93750,  -0.41589,   0.73936,   0.54151,  -0.93750,   0.80744
   0.09786,  -0.87208,   0.10117,   0.54217,  -0.93750,   0.93750,  -0.93750,  -0.93750,  -0.93750,  -0.93750
   0.06200,   0.80062,   0.59726,  -0.67275,   0.28547,  -0.01588,  -0.09899,  -0.55606,   0.37350,  -0.61210
  -0.86419,  -0.34580,  -0.86936,   0.32178,  -0.33069,   0.74864,   0.69159,  -0.93750,   0.76869,   0.55387
   0.79426,  -0.09875,  -0.29046,   0.74531,   0.93750,  -0.55798,  -0.57976,   0.86388,  -0.56086,   0.09792
  -0.79479,   0.32253,   0.80394,   0.15400,   0.93611,   0.37498,   0.03330,   0.23263,  -0.84833,  -0.93750
   0.42567,  -0.06111,  -0.67830,   0.86794,  -0.93750,   0.34135,   0.93750,  -0.87856,   0.66240,   0.47436
   0.25616,   0.45497,  -0.11146,   0.93750,   0.15678,  -0.61087,  -0.66022,  -0.55120,  -0.47260,   0.08112
  -0.87775,   0.63423,  -0.79521,   0.76970,   0.68704,  -0.24216,   0.37090,  -0.06505,  -0.47623,  -0.60861
  -0.41073,   0.25662,   0.87248,  -0.09097,   0.63169,  -0.93750,  -0.93750,  -0.71072,   0.93750,   0.87350
  -0.93750,  -0.67306,   0.15070,   0.55634,   0.20928,   0.77156,   0.93750,   0.86691,  -0.72632,  -0.79436
  -0.39172,  -0.63792,   0.81906,  -0.93750,   0.07073,  -0.57103,  -0.54710,   0.93750,  -0.93750,   0.57960
   0.93750,   0.56908,  -0.81202,   0.93750,   0.93750,   0.12545,  -0.49540,  -0.73247,  -0.68273,   0.93750
  -0.59535,  -0.57197,   0.60513,   0.61969,   0.19643,  -0.68921,  -0.58310,   0.60688,   0.74991,  -0.74176
   0.38869,   0.35873,  -0.80339,  -0.79662,  -0.81576,   0.93750,  -0.48527,  -0.84950,   0.01385,   0.11557
  -0.93750,  -0.93750,  -0.08558,  -0.01845,   0.93750,  -0.93750,  -0.74200,   0.08483,  -0.84119,  -0.93750
  -0.49311,   0.81959,  -0.03336,   0.45656,  -0.42915,   0.10138,   0.29069,  -0.32407,   0.22785,   0.49801
   0.71349,  -0.64858,   0.23302,   0.52897,   0.11776,  -0.03229,  -0.39573,   0.65703,  -0.85705,  -0.05329
   0.39078,  -0.42374,   0.56789,  -0.81611,  -0.44352,  -0.00577,   0.79528,   0.35761,   0.34555,   0.61512
  -0.12538,   0.83042,   0.93750,  -0.93750,   0.43305,  -0.58222,  -0.93750,  -0.25579,  -0.93750,   0.93750
  -0.93750,  -0.93750,  -0.93750,   0.93750,   0.93750,  -0.10702,  -0.61777,  -0.93750,   0.29898,   0.91269
  -0.74752,  -0.93750,  -0.48101,  -0.50240,   0.93750,   0.52211,  -0.93750,  -0.64650,  -0.87018,  -0.93750
   0.82030,   0.77709,   0.74113,  -0.53464,   0.62458,   0.37031,   0.50381,  -0.22020,  -0.61315,  -0.49457
   0.93750,   0.23932,   0.74250,  -0.93750,   0.93750,   0.47303,   0.93750,   0.24809,   0.60475,   0.93750
  -0.93750,  -0.75053,   0.62020,   0.08106,   0.06329,   0.25921,   0.02597,   0.71766,   0.93750,  -0.21334
  -0.55918,   0.20662,  -0.78790,  -0.81812,   0.93750,  -0.88122,  -0.19525,   0.68291,   0.27205,   0.53075
  -0.93750,   0.87353,   0.87333,   0.58258,  -0.26416,   0.81582,  -0.62961,   0.92359,  -0.22230,  -0.43760
  -0.47100,  -0.14035,   0.71832,  -0.93750,  -0.68480,   0.25014,  -0.81211,  -0.87063,   0.87180,   0.80044
  -0.09664,  -0.45987,   0.24218,   0.04333,   0.75146,  -0.63625,   0.78215,  -0.83925,  -0.40995,   0.76078
  -0.20357,   0.93750,  -0.56829,  -0.27791,   0.93750,  -0.87465,  -0.79667,  -0.93750,  -0.90152,   0.93750
  -0.33864,  -0.23550,  -0.75845,   0.55056,  -0.31540,   0.75564,  -0.82823,   0.55198,   0.81335,  -0.35930
  -0.84251,   0.93750,  -0.55588,   0.84010,  -0.76170,   0.36264,  -0.77654,  -0.43753,   0.55935,  -0.38610
   0.87316,  -0.57291,   0.93750,   0.02368,  -0.87175,  -0.35844,  -0.62140,  -0.00375,  -0.93750,  -0.87973
  -0.93750,  -0.93750,  -0.44686,   0.28249,  -0.84698,  -0.59242,  -0.08303,   0.93750,   0.83694,  -0.24334
  -0.93750,   0.74392,   0.13706,  -0.93750,   0.08305,   0.56934,   0.93750,  -0.47853,   0.93750,  -0.90504
  -0.88021,  -0.28988,  -0.37625,   0.93750,  -0.74402,  -0.93750,  -0.48918,   0.19619,   0.15338,  -0.54430
  -0.14997,  -0.60491,   0.87580,  -0.68641,  -0.46703,  -0.81292,   0.87716,  -0.89373,  -0.57230,   0.52200
  -0.87110,  -0.51208,   0.93750,  -0.81980,  -0.93750,   0.32773,  -0.26353,   0.86740,  -0.38875,   0.93750
  -0.80518,   0.35157,   0.93750,   0.54362,  -0.15983,  -0.19850,   0.93750,   0.75914,  -0.68711,   0.93750
  -0.41188,   0.01778,   0.93750,  -0.31563,   0.09505,   0.93750,  -0.24144,   0.62265,   0.16745,   0.93750
   0.37025,   0.72454,   0.25880,   0.93750,   0.05312,  -0.02052,   0.93750,  -0.13138,   0.93750,  -0.46561
   0.03619,  -0.03722,  -0.93750,  -0.31869,  -0.61237,   0.01725,   0.93750,  -0.51521,   0.00703,  -0.68684
  -0.47401,  -0.68046,  -0.80377,  -0.05441,   0.93750,   0.68920,  -0.81742,  -0.38125,   0.29113,  -0.56211
   0.30706,  -0.93750,   0.27242,   0.81824,  -0.31561,   0.37841,   0.86853,   0.35003,  -0.71067,   0.43720
  -0.51433,   0.51363,  -0.10080,   0.13609,   0.62106,  -0.31773,  -0.04382,  -0.65233,   0.00698,   0.92994
   0.89717,  -0.44666,  -0.45297,  -0.93750,  -0.66391,   0.93750,  -0.85762,   0.35195,   0.05801,   0.38559
  -0.16785,  -0.31936,  -0.60167,  -0.45498,   0.63732,   0.48941,   0.10233,   0.46935,  -0.36287,  -0.28741
  -0.33675,  -0.93750,  -0.93750,  -0.93750,  -0.93750,   0.93750,   0.74323,  -0.93750,   0.24702,  -0.93750
  -0.93750,  -0.81264,   0.30693,   0.58568,  -0.93750,   0.93750,  -0.86608,  -0.87875,  -0.65815,   0.48981
   0.61075,  -0.58294,  -0.33241,  -0.78684,   0.16078,  -0.67082,  -0.46098,   0.34575,   0.19809,   0.43286
  -0.57806,  -0.47752,  -0.27739,  -0.43914,  -0.54853,   0.28323,  -0.41144,   0.71044,  -0.02866,   0.85541
   0.40054,  -0.65172,   0.93750,  -0.93750,  -0.29949,  -0.83636,  -0.13447,   0.93750,   0.02620,   0.30865
   0.16861,  -0.93750,  -0.93750,  -0.68707,   0.93750,   0.10572,  -0.20997,  -0.53558,  -0.29919,   0.92180
  -0.52520,   0.93750,   0.36842,   0.33362,  -0.78363,   0.54125,  -0.80460,  -0.48673,  -0.48061,   0.45531
   0.87153,   0.25064,  -0.81164,   0.48352,  -0.34040,   0.00676,  -0.61789,  -0.04547,  -0.29955,   0.36469
   0.14531,   0.93750,  -0.57884,   0.50085,  -0.93750,   0.93750,   0.91089,  -0.74079,   0.43942,   0.85016
  -0.05270,   0.93750,  -0.79059,  -0.11946,  -0.64569,  -0.75138,   0.08506,   0.64159,   0.01305,   0.83440
  -0.47393,   0.21541,  -0.53941,   0.93750,  -0.16917,  -0.88332,   0.87521,   0.88227,   0.48841,  -0.87436
  -0.93750,  -0.73708,  -0.18725,  -0.10898,  -0.79333,   0.80860,   0.93750,   0.87243,  -0.92069,  -0.93750
  -0.33706,   0.03619,  -0.86012,   0.87707,   0.08945,  -0.88636,  -0.56985,   0.16779,   0.87325,  -0.10046
   0.18198,  -0.93100,   0.93750,  -0.27610,   0.93750,  -0.87008,   0.93750,  -0.93750,  -0.36783,   0.87003
   0.22308,   0.17341,  -0.93750,  -0.60962,   0.09334,   0.25625,  -0.86994,   0.53179,  -0.44274,   0.39429
  -0.74452,   0.93750,  -0.36101,  -0.51445,   0.74092,   0.31198,  -0.71031,  -0.77450,  -0.51969,  -0.80972
   0.93750,   0.27554,  -0.93750,  -0.81540,   0.93750,  -0.93750,   0.93750,   0.36220,  -0.68929,  -0.86950
   0.57246,  -0.08814,  -0.80868,   0.93750,   0.37157,   0.48319,  -0.25803,  -0.62394,  -0.37645,  -0.64281
   0.80514,  -0.29522,  -0.13853,   0.86848,  -0.93750,  -0.86353,   0.77478,  -0.68606,  -0.33661,  -0.04018
   0.21103,  -0.88014,  -0.55107,  -0.58062,   0.00450,   0.54555,  -0.43832,  -0.81317,  -0.45213,   0.67202
  -0.34332,  -0.53195,   0.47207,   0.73367,   0.27823,   0.32957,   0.63356,   0.02214,   0.42395,   0.87734
  -0.47911,   0.59234,  -0.64191,   0.05145,  -0.46682,  -0.20032,  -0.60390,  -0.15354,   0.11906,   0.82547
   0.31881,  -0.93750,  -0.93750,   0.93750,   0.31197,   0.93750,  -0.93750,  -0.37655,  -0.68393,   0.55812
   0.51259,  -0.86265,   0.93750,  -0.93750,  -0.01787,  -0.93750,   0.74958,   0.82829,   0.78709,  -0.87284
   0.64640,  -0.93750,   0.93750,  -0.88360,   0.13502,  -0.49460,   0.82341,  -0.23855,   0.14545,  -0.87299
   0.00907,  -0.66058,  -0.89732,   0.93750,  -0.93750,   0.11438,  -0.03984,  -0.54125,  -0.38947,   0.93750
  -0.27093,  -0.93750,   0.64737,   0.93750,  -0.93750,  -0.40645,  -0.44328,   0.93750,   0.06381,  -0.79294
   0.22669,   0.22092,  -0.70296,  -0.69902,   0.87779,  -0.80287,   0.69347,   0.80424,   0.50675,   0.37663
  -0.30528,   0.81383,  -0.37772,  -0.53568,  -0.36175,  -0.91668,   0.80474,  -0.93750,   0.40149,   0.87295
   0.53245,   0.74475,   0.93750,   0.36287,   0.86039,  -0.04374,   0.86026,   0.93750,   0.69659,   0.93750
  -0.73600,   0.59531,   0.59384,  -0.57116,  -0.87449,  -0.48614,  -0.22888,  -0.54608,   0.29377,  -0.24002
  -0.38821,  -0.44858,   0.42085,   0.60290,   0.26183,  -0.87722,   0.39890,   0.32480,  -0.41565,   0.72634
   0.48718,  -0.29021,   0.10007,  -0.87110,  -0.33604,   0.61961,  -0.46913,  -0.85655,   0.82440,   0.19371
   0.62602,  -0.29033,  -0.87444,  -0.79411,  -0.19663,   0.76432,   0.75047,  -0.68472,  -0.60244,  -0.45609
  -0.19839,   0.48824,   0.39163,   0.93750,  -0.56994,  -0.88411,  -0.81637,  -0.13288,  -0.86862,   0.86859
   0.15958,   0.82559,  -0.62349,  -0.61560,  -0.29855,  -0.33995,   0.67654,  -0.82942,  -0.35853,   0.86337
   0.28132,  -0.93750,  -0.23780,  -0.42432,   0.93750,   0.93750,  -0.08888,  -0.64592,   0.64232,   0.56319
  -0.06641,  -0.27460,  -0.36613,  -0.08665,  -0.10873,  -0.13696,  -0.00944,   0.03534,   0.80509,  -0.59102
   0.00571,   0.88460,  -0.01285,  -0.69402,  -0.14942,   0.37068,  -0.34195,  -0.51607,   0.75207,   0.29697
   0.33983,  -0.87723,  -0.90477,  -0.79344,   0.93750,   0.93750,  -0.93750,  -0.22435,  -0.40989,   0.93750
   0.93750,   0.76970,  -0.61409,   0.87765,  -0.88211,   0.31913,  -0.93750,  -0.23237,  -0.88085,  -0.12395
   0.93750,   0.93750,   0.10957,   0.93594,  -0.93750,  -0.07911,   0.02132,   0.68125,  -0.93750,   0.93750
   0.54400,  -0.75183,   0.82859,  -0.59397,  -0.02782,   0.05440,  -0.88404,   0.42407,   0.93750,  -0.93750
  -0.87219,   0.80724,   0.93750,   0.93750,   0.64663,   0.22818,  -0.70449,  -0.41091,   0.88466,  -0.36526
   0.16186,  -0.93750,   0.93750,  -0.70176,   0.88853,  -0.02835,   0.39802,   0.80742,   0.24544,   0.53800
  -0.18441,   0.06293,   0.88499,  -0.93750,   0.93750,  -0.70374,  -0.89054,   0.58956,  -0.38323,   0.46871
  -0.61229,   0.93750,  -0.70977,   0.86362,   0.93750,  -0.93750,  -0.72030,   0.60950,  -0.91562,   0.93750
   0.04430,   0.23882,  -0.05594,   0.32185,  -0.01559,   0.40662,  -0.80323,   0.07718,  -0.04277,   0.70012
   0.93750,   0.23219,   0.71616,   0.00411,   0.93750,   0.66204,  -0.72950,   0.91578,  -0.01313,  -0.74985
  -0.81078,   0.48300,  -0.82058,  -0.04768,   0.93750,   0.77800,  -0.93750,  -0.93750,  -0.88326,   0.93750
  -0.93750,   0.00165,  -0.06536,  -0.58709,  -0.93750,  -0.10558,  -0.93750,   0.22214,  -0.93750,  -0.69327
   0.78513,  -0.67506,   0.66776,  -0.39554,   0.56273,  -0.24392,  -0.15928,   0.45521,  -0.56899,   0.65269
  -0.51775,  -0.87250,   0.77520,   0.89724,   0.12798,   0.73209,   0.42931,  -0.39685,  -0.43564,   0.45578
  -0.09175,  -0.87501,   0.59432,   0.55399,   0.07167,  -0.34029,   0.14276,  -0.86611,   0.18854,  -0.58495
  -0.93750,  -0.69129,  -0.93750,  -0.55664,  -0.51585,   0.93750,   0.20647,   0.08539,   0.37752,   0.90798
  -0.30802,  -0.93750,  -0.17813,   0.51696,  -0.91928,  -0.93750,  -0.93750,   0.93750,  -0.56198,   0.72596
   0.70262,  -0.03887,  -0.93750,   0.02072,  -0.88225,   0.81720,   0.56324,   0.86852,  -0.93330,   0.93750
  -0.93750,  -0.80383,   0.06984,  -0.11406,   0.76779,  -0.91333,  -0.81648,   0.67326,   0.12463,   0.55956
  -0.68938,  -0.05942,   0.12170,  -0.80299,   0.60071,  -0.82208,  -0.26160,  -0.78351,   0.17053,   0.88701
   0.44821,  -0.42902,   0.59723,   0.47871,   0.43359,   0.74894,  -0.78228,  -0.76202,  -0.27434,  -0.25953
  -0.93750,   0.93750,   0.33281,  -0.24969,   0.59145,  -0.93750,  -0.83865,  -0.93750,  -0.86823,  -0.67048
   0.48104,   0.45948,   0.86926,   0.86868,  -0.56743,  -0.82228,  -0.74568,   0.00161,  -0.14990,  -0.13748
  -0.29410,  -0.93750,  -0.10659,  -0.06298,  -0.58837,   0.57088,  -0.73536,   0.85294,   0.56515,  -0.13031
  -0.36083,  -0.16060,  -0.93750,  -0.28971,  -0.62938,  -0.93750,  -0.29476,  -0.53848,  -0.05026,   0.93750
  -0.87110,   0.40891,  -0.93750,  -0.61649,  -0.80890,   0.93750,   0.30132,   0.03082,   0.80884,  -0.38677
  -0.93750,  -0.88000,  -0.32344,   0.07483,   0.93750,   0.93750,   0.59681,  -0.70402,  -0.74520,  -0.04480
   0.89351,  -0.00092,  -0.38103,   0.69582,   0.89469,  -0.93750,  -0.93750,   0.23540,   0.93750,   0.05974
   0.32822,   0.93750,   0.66070,   0.32602,  -0.13011,   0.40026,   0.02463,  -0.10420,  -0.70297,  -0.81996
   0.86932,   0.87255,   0.35710,  -0.62905,   0.63964,   0.34623,   0.35127,  -0.80716,  -0.67350,  -0.77699
